<?xml version="1.0"?>
<opencv_storage>
<cascade>
  <stageType>BOOST</stageType>
  <featureType>HAAR</featureType>
  <height>20</height>
  <width>20</width>
  <stageParams>
    <boostType>GAB</boostType>
    <minHitRate>9.9800002574920654e-01</minHitRate>
    <maxFalseAlarm>5.0000000000000000e-01</maxFalseAlarm>
    <weightTrimRate>9.4999999999999996e-01</weightTrimRate>
    <maxDepth>1</maxDepth>
    <maxWeakCount>100</maxWeakCount></stageParams>
  <featureParams>
    <maxCatCount>0</maxCatCount>
    <featSize>1</featSize>
    <mode>BASIC</mode></featureParams>
  <stageNum>6</stageNum>
  <stages>
    <!-- stage 0 -->
    <_>
      <maxWeakCount>12</maxWeakCount>
      <stageThreshold>-1.4229618310928345e+00</stageThreshold>
      <weakClassifiers>
        <_>
          <internalNodes>
            0 -1 120 -1.2995857745409012e-02</internalNodes>
          <leafValues>
            7.4309140443801880e-01 -2.6451042294502258e-01</leafValues></_>
        <_>
          <internalNodes>
            0 -1 79 3.4457077272236347e-03</internalNodes>
          <leafValues>
            -2.9389959573745728e-01 6.9313001632690430e-01</leafValues></_>
        <_>
          <internalNodes>
            0 -1 127 9.1533566592261195e-04</internalNodes>
          <leafValues>
            -3.7265458703041077e-01 5.2479660511016846e-01</leafValues></_>
        <_>
          <internalNodes>
            0 -1 77 -2.9859046917408705e-03</internalNodes>
          <leafValues>
            5.7721751928329468e-01 -3.5557344555854797e-01</leafValues></_>
        <_>
          <internalNodes>
            0 -1 13 3.0687279999256134e-02</internalNodes>
          <leafValues>
            -2.8059461712837219e-01 6.5975379943847656e-01</leafValues></_>
        <_>
          <internalNodes>
            0 -1 20 -2.8619002550840378e-03</internalNodes>
          <leafValues>
            5.3092175722122192e-01 -2.4912230670452118e-01</leafValues></_>
        <_>
          <internalNodes>
            0 -1 70 1.8387790769338608e-02</internalNodes>
          <leafValues>
            1.7240147292613983e-01 -7.8174781799316406e-01</leafValues></_>
        <_>
          <internalNodes>
            0 -1 9 -1.5656467527151108e-02</internalNodes>
          <leafValues>
            4.9895799160003662e-01 -2.5368538498878479e-01</leafValues></_>
        <_>
          <internalNodes>
            0 -1 124 -2.0934122148901224e-03</internalNodes>
          <leafValues>
            4.6110129356384277e-01 -2.6987767219543457e-01</leafValues></_>
        <_>
          <internalNodes>
            0 -1 142 -5.0774607807397842e-03</internalNodes>
          <leafValues>
            5.8951944112777710e-01 -1.5889680385589600e-01</leafValues></_>
        <_>
          <internalNodes>
            0 -1 33 -4.2155753821134567e-02</internalNodes>
          <leafValues>
            -8.8116925954818726e-01 1.4363299310207367e-01</leafValues></_>
        <_>
          <internalNodes>
            0 -1 45 -1.5257234917953610e-03</internalNodes>
          <leafValues>
            4.6207222342491150e-01 -2.2721102833747864e-01</leafValues></_></weakClassifiers></_>
    <!-- stage 1 -->
    <_>
      <maxWeakCount>21</maxWeakCount>
      <stageThreshold>-1.2539097070693970e+00</stageThreshold>
      <weakClassifiers>
        <_>
          <internalNodes>
            0 -1 2 8.2971066236495972e-02</internalNodes>
          <leafValues>
            -1.3949842751026154e-01 7.3582386970520020e-01</leafValues></_>
        <_>
          <internalNodes>
            0 -1 79 6.1310729943215847e-03</internalNodes>
          <leafValues>
            -2.0796281099319458e-01 7.1445614099502563e-01</leafValues></_>
        <_>
          <internalNodes>
            0 -1 126 -3.7764431908726692e-04</internalNodes>
          <leafValues>
            3.6932560801506042e-01 -3.7904801964759827e-01</leafValues></_>
        <_>
          <internalNodes>
            0 -1 57 -8.7617672979831696e-03</internalNodes>
          <leafValues>
            5.7695299386978149e-01 -2.6393479108810425e-01</leafValues></_>
        <_>
          <internalNodes>
            0 -1 139 2.0784167572855949e-03</internalNodes>
          <leafValues>
            -2.2527481615543365e-01 5.2179342508316040e-01</leafValues></_>
        <_>
          <internalNodes>
            0 -1 53 -2.4876842275261879e-02</internalNodes>
          <leafValues>
            -7.3111999034881592e-01 1.3365732133388519e-01</leafValues></_>
        <_>
          <internalNodes>
            0 -1 15 -2.2876961156725883e-03</internalNodes>
          <leafValues>
            3.7179151177406311e-01 -2.4106448888778687e-01</leafValues></_>
        <_>
          <internalNodes>
            0 -1 51 4.0483951568603516e-02</internalNodes>
          <leafValues>
            1.0019279271364212e-01 -7.9967474937438965e-01</leafValues></_>
        <_>
          <internalNodes>
            0 -1 91 -2.6994796935468912e-03</internalNodes>
          <leafValues>
            -7.5240552425384521e-01 9.8844267427921295e-02</leafValues></_>
        <_>
          <internalNodes>
            0 -1 31 -2.8147164732217789e-02</internalNodes>
          <leafValues>
            5.1145833730697632e-01 -1.8239293992519379e-01</leafValues></_>
        <_>
          <internalNodes>
            0 -1 63 3.1974916346371174e-03</internalNodes>
          <leafValues>
            1.4414738118648529e-01 -7.4405968189239502e-01</leafValues></_>
        <_>
          <internalNodes>
            0 -1 35 -4.1808784008026123e-03</internalNodes>
          <leafValues>
            5.1234251260757446e-01 -1.7170214653015137e-01</leafValues></_>
        <_>
          <internalNodes>
            0 -1 71 3.5105660557746887e-02</internalNodes>
          <leafValues>
            1.1179977655410767e-01 -9.1791498661041260e-01</leafValues></_>
        <_>
          <internalNodes>
            0 -1 137 -2.1024881862103939e-03</internalNodes>
          <leafValues>
            3.6195147037506104e-01 -2.5695869326591492e-01</leafValues></_>
        <_>
          <internalNodes>
            0 -1 73 -2.9239743947982788e-02</internalNodes>
          <leafValues>
            -6.2206071615219116e-01 1.3058058917522430e-01</leafValues></_>
        <_>
          <internalNodes>
            0 -1 60 -2.0686630159616470e-03</internalNodes>
          <leafValues>
            3.3855322003364563e-01 -2.2794879972934723e-01</leafValues></_>
        <_>
          <internalNodes>
            0 -1 111 5.3638838231563568e-02</internalNodes>
          <leafValues>
            -1.1543624848127365e-01 5.8311849832534790e-01</leafValues></_>
        <_>
          <internalNodes>
            0 -1 39 4.1292677633464336e-03</internalNodes>
          <leafValues>
            -2.1667869389057159e-01 3.4335801005363464e-01</leafValues></_>
        <_>
          <internalNodes>
            0 -1 37 -4.5677470043301582e-03</internalNodes>
          <leafValues>
            -6.8925559520721436e-01 1.0939565300941467e-01</leafValues></_>
        <_>
          <internalNodes>
            0 -1 14 -1.2792813591659069e-02</internalNodes>
          <leafValues>
            4.1652724146842957e-01 -1.7181356251239777e-01</leafValues></_>
        <_>
          <internalNodes>
            0 -1 43 1.5971437096595764e-03</internalNodes>
          <leafValues>
            -2.7526965737342834e-01 2.6708865165710449e-01</leafValues></_></weakClassifiers></_>
    <!-- stage 2 -->
    <_>
      <maxWeakCount>25</maxWeakCount>
      <stageThreshold>-1.3182791471481323e+00</stageThreshold>
      <weakClassifiers>
        <_>
          <internalNodes>
            0 -1 59 4.7205677255988121e-03</internalNodes>
          <leafValues>
            -8.0336645245552063e-02 7.0163488388061523e-01</leafValues></_>
        <_>
          <internalNodes>
            0 -1 122 -6.7685127258300781e-02</internalNodes>
          <leafValues>
            5.3787118196487427e-01 -2.4797776341438293e-01</leafValues></_>
        <_>
          <internalNodes>
            0 -1 7 4.2132224887609482e-02</internalNodes>
          <leafValues>
            -2.0074793696403503e-01 6.1025273799896240e-01</leafValues></_>
        <_>
          <internalNodes>
            0 -1 40 5.8000888675451279e-03</internalNodes>
          <leafValues>
            -3.5024291276931763e-01 2.9051095247268677e-01</leafValues></_>
        <_>
          <internalNodes>
            0 -1 97 -4.9763044808059931e-04</internalNodes>
          <leafValues>
            3.5427150130271912e-01 -2.7150297164916992e-01</leafValues></_>
        <_>
          <internalNodes>
            0 -1 100 -2.3121684789657593e-03</internalNodes>
          <leafValues>
            2.8670874238014221e-01 -3.0003741383552551e-01</leafValues></_>
        <_>
          <internalNodes>
            0 -1 128 -1.1193042621016502e-02</internalNodes>
          <leafValues>
            4.5343393087387085e-01 -1.8674778938293457e-01</leafValues></_>
        <_>
          <internalNodes>
            0 -1 87 1.2002104194834828e-03</internalNodes>
          <leafValues>
            1.6722302138805389e-01 -5.9994864463806152e-01</leafValues></_>
        <_>
          <internalNodes>
            0 -1 47 -3.4176288172602654e-03</internalNodes>
          <leafValues>
            -6.9313347339630127e-01 1.2637078762054443e-01</leafValues></_>
        <_>
          <internalNodes>
            0 -1 102 1.3341631274670362e-03</internalNodes>
          <leafValues>
            -2.7974963188171387e-01 2.6437175273895264e-01</leafValues></_>
        <_>
          <internalNodes>
            0 -1 138 1.7373787704855204e-03</internalNodes>
          <leafValues>
            -2.1194921433925629e-01 3.4460917115211487e-01</leafValues></_>
        <_>
          <internalNodes>
            0 -1 119 -2.7579849120229483e-04</internalNodes>
          <leafValues>
            2.3288592696189880e-01 -3.1787779927253723e-01</leafValues></_>
        <_>
          <internalNodes>
            0 -1 0 1.6020758450031281e-01</internalNodes>
          <leafValues>
            -1.4615294337272644e-01 5.1034182310104370e-01</leafValues></_>
        <_>
          <internalNodes>
            0 -1 83 8.9266374707221985e-03</internalNodes>
          <leafValues>
            -1.5078844130039215e-01 4.8933663964271545e-01</leafValues></_>
        <_>
          <internalNodes>
            0 -1 50 -4.4255509972572327e-02</internalNodes>
          <leafValues>
            7.0713955163955688e-01 -9.8990723490715027e-02</leafValues></_>
        <_>
          <internalNodes>
            0 -1 38 -4.6933023259043694e-03</internalNodes>
          <leafValues>
            -6.5588432550430298e-01 1.2796467542648315e-01</leafValues></_>
        <_>
          <internalNodes>
            0 -1 64 3.2496765255928040e-02</internalNodes>
          <leafValues>
            9.1365814208984375e-02 -6.3823515176773071e-01</leafValues></_>
        <_>
          <internalNodes>
            0 -1 36 7.2426227852702141e-03</internalNodes>
          <leafValues>
            -1.9100551307201385e-01 3.9986005425453186e-01</leafValues></_>
        <_>
          <internalNodes>
            0 -1 81 -1.9440096803009510e-03</internalNodes>
          <leafValues>
            3.5195919871330261e-01 -2.0877070724964142e-01</leafValues></_>
        <_>
          <internalNodes>
            0 -1 89 6.6713467240333557e-03</internalNodes>
          <leafValues>
            1.3813544809818268e-01 -5.1543515920639038e-01</leafValues></_>
        <_>
          <internalNodes>
            0 -1 112 -9.9680107086896896e-04</internalNodes>
          <leafValues>
            -5.8195310831069946e-01 1.0415986180305481e-01</leafValues></_>
        <_>
          <internalNodes>
            0 -1 76 1.6265700105577707e-03</internalNodes>
          <leafValues>
            -2.6268440485000610e-01 2.4007566273212433e-01</leafValues></_>
        <_>
          <internalNodes>
            0 -1 79 8.9590884745121002e-03</internalNodes>
          <leafValues>
            -1.1214260756969452e-01 5.3701770305633545e-01</leafValues></_>
        <_>
          <internalNodes>
            0 -1 66 2.9482222162187099e-03</internalNodes>
          <leafValues>
            -1.5673334896564484e-01 3.9329120516777039e-01</leafValues></_>
        <_>
          <internalNodes>
            0 -1 130 -1.4250584645196795e-03</internalNodes>
          <leafValues>
            3.4692785143852234e-01 -1.6407501697540283e-01</leafValues></_></weakClassifiers></_>
    <!-- stage 3 -->
    <_>
      <maxWeakCount>27</maxWeakCount>
      <stageThreshold>-1.1486090421676636e+00</stageThreshold>
      <weakClassifiers>
        <_>
          <internalNodes>
            0 -1 34 1.3770896010100842e-02</internalNodes>
          <leafValues>
            -6.2212944030761719e-02 6.3359749317169189e-01</leafValues></_>
        <_>
          <internalNodes>
            0 -1 3 9.4480648636817932e-02</internalNodes>
          <leafValues>
            -1.6470038890838623e-01 5.9760779142379761e-01</leafValues></_>
        <_>
          <internalNodes>
            0 -1 143 -5.6408676318824291e-03</internalNodes>
          <leafValues>
            4.9716442823410034e-01 -1.7937622964382172e-01</leafValues></_>
        <_>
          <internalNodes>
            0 -1 117 7.9262343933805823e-04</internalNodes>
          <leafValues>
            -3.7503793835639954e-01 2.9202213883399963e-01</leafValues></_>
        <_>
          <internalNodes>
            0 -1 109 -3.1371987424790859e-03</internalNodes>
          <leafValues>
            4.1317373514175415e-01 -2.1507103741168976e-01</leafValues></_>
        <_>
          <internalNodes>
            0 -1 54 -7.5238500721752644e-03</internalNodes>
          <leafValues>
            -5.3387695550918579e-01 1.6451662778854370e-01</leafValues></_>
        <_>
          <internalNodes>
            0 -1 74 2.4211827665567398e-02</internalNodes>
          <leafValues>
            9.1354727745056152e-02 -7.8091484308242798e-01</leafValues></_>
        <_>
          <internalNodes>
            0 -1 30 -2.5567933917045593e-02</internalNodes>
          <leafValues>
            5.8057826757431030e-01 -1.5370208024978638e-01</leafValues></_>
        <_>
          <internalNodes>
            0 -1 96 4.2427633889019489e-03</internalNodes>
          <leafValues>
            -3.1106615066528320e-01 2.2346974909305573e-01</leafValues></_>
        <_>
          <internalNodes>
            0 -1 99 1.8187656998634338e-02</internalNodes>
          <leafValues>
            8.9192867279052734e-02 -8.6477422714233398e-01</leafValues></_>
        <_>
          <internalNodes>
            0 -1 77 -6.4776428043842316e-03</internalNodes>
          <leafValues>
            3.7008473277091980e-01 -1.7866976559162140e-01</leafValues></_>
        <_>
          <internalNodes>
            0 -1 21 -3.4562605433166027e-03</internalNodes>
          <leafValues>
            3.5523924231529236e-01 -1.8048317730426788e-01</leafValues></_>
        <_>
          <internalNodes>
            0 -1 52 1.1071942746639252e-02</internalNodes>
          <leafValues>
            7.6174959540367126e-02 -8.2621020078659058e-01</leafValues></_>
        <_>
          <internalNodes>
            0 -1 14 1.4932544901967049e-02</internalNodes>
          <leafValues>
            -1.3689529895782471e-01 5.0353300571441650e-01</leafValues></_>
        <_>
          <internalNodes>
            0 -1 12 -6.3684252090752125e-03</internalNodes>
          <leafValues>
            4.7993323206901550e-01 -1.2035651504993439e-01</leafValues></_>
        <_>
          <internalNodes>
            0 -1 85 9.8982476629316807e-04</internalNodes>
          <leafValues>
            1.0362981259822845e-01 -5.9699589014053345e-01</leafValues></_>
        <_>
          <internalNodes>
            0 -1 49 6.0456288047134876e-03</internalNodes>
          <leafValues>
            -1.7625424265861511e-01 3.2696935534477234e-01</leafValues></_>
        <_>
          <internalNodes>
            0 -1 88 -3.8628224283456802e-02</internalNodes>
          <leafValues>
            5.8048057556152344e-01 -8.9143358170986176e-02</leafValues></_>
        <_>
          <internalNodes>
            0 -1 26 -3.9013333618640900e-02</internalNodes>
          <leafValues>
            -8.1243520975112915e-01 8.4870181977748871e-02</leafValues></_>
        <_>
          <internalNodes>
            0 -1 27 4.2193681001663208e-03</internalNodes>
          <leafValues>
            7.4103742837905884e-02 -6.1186313629150391e-01</leafValues></_>
        <_>
          <internalNodes>
            0 -1 69 1.4362322166562080e-02</internalNodes>
          <leafValues>
            5.8624535799026489e-02 -7.3940092325210571e-01</leafValues></_>
        <_>
          <internalNodes>
            0 -1 17 -1.4468130469322205e-01</internalNodes>
          <leafValues>
            -6.9521492719650269e-01 5.9296399354934692e-02</leafValues></_>
        <_>
          <internalNodes>
            0 -1 113 1.8948753131553531e-03</internalNodes>
          <leafValues>
            -2.3427580296993256e-01 2.2006322443485260e-01</leafValues></_>
        <_>
          <internalNodes>
            0 -1 25 9.7623933106660843e-03</internalNodes>
          <leafValues>
            8.6108639836311340e-02 -6.5658360719680786e-01</leafValues></_>
        <_>
          <internalNodes>
            0 -1 24 9.2157162725925446e-03</internalNodes>
          <leafValues>
            -1.6975541412830353e-01 3.6420619487762451e-01</leafValues></_>
        <_>
          <internalNodes>
            0 -1 61 6.4890692010521889e-03</internalNodes>
          <leafValues>
            -1.6219678521156311e-01 3.4038999676704407e-01</leafValues></_>
        <_>
          <internalNodes>
            0 -1 32 1.2942777015268803e-02</internalNodes>
          <leafValues>
            6.8237282335758209e-02 -7.9405969381332397e-01</leafValues></_></weakClassifiers></_>
    <!-- stage 4 -->
    <_>
      <maxWeakCount>34</maxWeakCount>
      <stageThreshold>-1.3263759613037109e+00</stageThreshold>
      <weakClassifiers>
        <_>
          <internalNodes>
            0 -1 103 1.6111843287944794e-03</internalNodes>
          <leafValues>
            -2.1865889430046082e-03 6.6143977642059326e-01</leafValues></_>
        <_>
          <internalNodes>
            0 -1 125 1.5018591657280922e-02</internalNodes>
          <leafValues>
            -1.8227408826351166e-01 5.3105181455612183e-01</leafValues></_>
        <_>
          <internalNodes>
            0 -1 4 9.2810764908790588e-02</internalNodes>
          <leafValues>
            -2.5127407908439636e-01 3.3396229147911072e-01</leafValues></_>
        <_>
          <internalNodes>
            0 -1 116 1.6199533129110932e-03</internalNodes>
          <leafValues>
            -2.7190718054771423e-01 2.8233730792999268e-01</leafValues></_>
        <_>
          <internalNodes>
            0 -1 48 -1.0466797277331352e-02</internalNodes>
          <leafValues>
            -7.1577292680740356e-01 7.5546108186244965e-02</leafValues></_>
        <_>
          <internalNodes>
            0 -1 86 -1.7088099848479033e-03</internalNodes>
          <leafValues>
            -7.1812933683395386e-01 7.0567175745964050e-02</leafValues></_>
        <_>
          <internalNodes>
            0 -1 108 1.6991639276966453e-03</internalNodes>
          <leafValues>
            -2.3794068396091461e-01 2.4538870155811310e-01</leafValues></_>
        <_>
          <internalNodes>
            0 -1 110 -8.3907134830951691e-04</internalNodes>
          <leafValues>
            3.7537789344787598e-01 -1.6742396354675293e-01</leafValues></_>
        <_>
          <internalNodes>
            0 -1 118 4.6780575066804886e-03</internalNodes>
          <leafValues>
            1.0251037776470184e-01 -8.2285952568054199e-01</leafValues></_>
        <_>
          <internalNodes>
            0 -1 28 -2.4782422930002213e-02</internalNodes>
          <leafValues>
            4.8651495575904846e-01 -1.4260767400264740e-01</leafValues></_>
        <_>
          <internalNodes>
            0 -1 98 -1.1109686456620693e-03</internalNodes>
          <leafValues>
            1.9151218235492706e-01 -3.2702690362930298e-01</leafValues></_>
        <_>
          <internalNodes>
            0 -1 55 -3.0934430658817291e-02</internalNodes>
          <leafValues>
            -6.6902583837509155e-01 1.1662673950195312e-01</leafValues></_>
        <_>
          <internalNodes>
            0 -1 41 -1.1298712342977524e-02</internalNodes>
          <leafValues>
            -7.2237163782119751e-01 5.3315673023462296e-02</leafValues></_>
        <_>
          <internalNodes>
            0 -1 140 -3.3425188157707453e-03</internalNodes>
          <leafValues>
            2.6909947395324707e-01 -1.9035375118255615e-01</leafValues></_>
        <_>
          <internalNodes>
            0 -1 1 6.5475068986415863e-03</internalNodes>
          <leafValues>
            -1.6634792089462280e-01 3.1554967164993286e-01</leafValues></_>
        <_>
          <internalNodes>
            0 -1 6 -3.3663973212242126e-02</internalNodes>
          <leafValues>
            3.5056179761886597e-01 -1.6654630005359650e-01</leafValues></_>
        <_>
          <internalNodes>
            0 -1 123 2.9096768703311682e-03</internalNodes>
          <leafValues>
            1.2993663549423218e-01 -4.7947201132774353e-01</leafValues></_>
        <_>
          <internalNodes>
            0 -1 92 3.9426032453775406e-03</internalNodes>
          <leafValues>
            -1.4242915809154510e-01 3.8667166233062744e-01</leafValues></_>
        <_>
          <internalNodes>
            0 -1 18 1.2772958725690842e-02</internalNodes>
          <leafValues>
            8.7940417230129242e-02 -6.9262319803237915e-01</leafValues></_>
        <_>
          <internalNodes>
            0 -1 92 -6.0535604134202003e-03</internalNodes>
          <leafValues>
            4.5165610313415527e-01 -1.3478341698646545e-01</leafValues></_>
        <_>
          <internalNodes>
            0 -1 29 -1.2817132519558072e-03</internalNodes>
          <leafValues>
            2.4587099254131317e-01 -2.2874127328395844e-01</leafValues></_>
        <_>
          <internalNodes>
            0 -1 56 3.6790188401937485e-02</internalNodes>
          <leafValues>
            7.0489227771759033e-02 -7.6789212226867676e-01</leafValues></_>
        <_>
          <internalNodes>
            0 -1 104 -7.7773554949089885e-04</internalNodes>
          <leafValues>
            -5.1605957746505737e-01 8.4083981812000275e-02</leafValues></_>
        <_>
          <internalNodes>
            0 -1 134 -1.4650209341198206e-03</internalNodes>
          <leafValues>
            2.6335519552230835e-01 -1.9987551867961884e-01</leafValues></_>
        <_>
          <internalNodes>
            0 -1 72 1.2249018996953964e-02</internalNodes>
          <leafValues>
            8.4932453930377960e-02 -6.9245207309722900e-01</leafValues></_>
        <_>
          <internalNodes>
            0 -1 115 4.4929707655683160e-04</internalNodes>
          <leafValues>
            -2.4865739047527313e-01 2.3015087842941284e-01</leafValues></_>
        <_>
          <internalNodes>
            0 -1 105 4.5983502641320229e-03</internalNodes>
          <leafValues>
            7.9585202038288116e-02 -6.3441854715347290e-01</leafValues></_>
        <_>
          <internalNodes>
            0 -1 23 6.6408561542630196e-03</internalNodes>
          <leafValues>
            -1.6357016563415527e-01 2.9003491997718811e-01</leafValues></_>
        <_>
          <internalNodes>
            0 -1 65 -9.9593237973749638e-04</internalNodes>
          <leafValues>
            2.8073543310165405e-01 -1.6942054033279419e-01</leafValues></_>
        <_>
          <internalNodes>
            0 -1 67 4.5715562999248505e-02</internalNodes>
          <leafValues>
            6.0048062354326248e-02 -8.9950239658355713e-01</leafValues></_>
        <_>
          <internalNodes>
            0 -1 19 1.3059126213192940e-03</internalNodes>
          <leafValues>
            -2.2376945614814758e-01 2.1908055245876312e-01</leafValues></_>
        <_>
          <internalNodes>
            0 -1 10 1.6250286996364594e-01</internalNodes>
          <leafValues>
            -1.1408021301031113e-01 4.5350956916809082e-01</leafValues></_>
        <_>
          <internalNodes>
            0 -1 135 4.3782102875411510e-04</internalNodes>
          <leafValues>
            -1.8354630470275879e-01 2.7915024757385254e-01</leafValues></_>
        <_>
          <internalNodes>
            0 -1 84 -3.1895076390355825e-03</internalNodes>
          <leafValues>
            3.2688656449317932e-01 -1.4600439369678497e-01</leafValues></_></weakClassifiers></_>
    <!-- stage 5 -->
    <_>
      <maxWeakCount>36</maxWeakCount>
      <stageThreshold>-1.0879781246185303e+00</stageThreshold>
      <weakClassifiers>
        <_>
          <internalNodes>
            0 -1 121 -1.1361250653862953e-02</internalNodes>
          <leafValues>
            6.2292695045471191e-01 -3.6997884511947632e-02</leafValues></_>
        <_>
          <internalNodes>
            0 -1 80 9.8207350820302963e-03</internalNodes>
          <leafValues>
            -1.6306227445602417e-01 5.5587977170944214e-01</leafValues></_>
        <_>
          <internalNodes>
            0 -1 139 1.1406431440263987e-03</internalNodes>
          <leafValues>
            -2.6853564381599426e-01 3.2179713249206543e-01</leafValues></_>
        <_>
          <internalNodes>
            0 -1 8 9.4714060425758362e-02</internalNodes>
          <leafValues>
            -1.0065221041440964e-01 6.6247498989105225e-01</leafValues></_>
        <_>
          <internalNodes>
            0 -1 78 -5.2392445504665375e-03</internalNodes>
          <leafValues>
            2.9716756939888000e-01 -2.5967866182327271e-01</leafValues></_>
        <_>
          <internalNodes>
            0 -1 131 -3.3421479165554047e-03</internalNodes>
          <leafValues>
            -7.0809352397918701e-01 7.0283390581607819e-02</leafValues></_>
        <_>
          <internalNodes>
            0 -1 75 2.2036763839423656e-03</internalNodes>
          <leafValues>
            -1.8659515678882599e-01 2.8057187795639038e-01</leafValues></_>
        <_>
          <internalNodes>
            0 -1 107 -1.7143432050943375e-03</internalNodes>
          <leafValues>
            -7.4176907539367676e-01 7.7572986483573914e-02</leafValues></_>
        <_>
          <internalNodes>
            0 -1 91 -1.0832725092768669e-03</internalNodes>
          <leafValues>
            -4.8692858219146729e-01 8.9046351611614227e-02</leafValues></_>
        <_>
          <internalNodes>
            0 -1 62 8.8886944577097893e-03</internalNodes>
          <leafValues>
            9.8341017961502075e-02 -5.5939447879791260e-01</leafValues></_>
        <_>
          <internalNodes>
            0 -1 129 -1.7763213254511356e-03</internalNodes>
          <leafValues>
            2.5975432991981506e-01 -1.9385015964508057e-01</leafValues></_>
        <_>
          <internalNodes>
            0 -1 101 -7.7543212100863457e-03</internalNodes>
          <leafValues>
            2.7730047702789307e-01 -1.7534482479095459e-01</leafValues></_>
        <_>
          <internalNodes>
            0 -1 22 -7.1272164583206177e-02</internalNodes>
          <leafValues>
            -6.2069356441497803e-01 7.7567793428897858e-02</leafValues></_>
        <_>
          <internalNodes>
            0 -1 68 1.1360554024577141e-02</internalNodes>
          <leafValues>
            8.5246875882148743e-02 -5.1690608263015747e-01</leafValues></_>
        <_>
          <internalNodes>
            0 -1 41 -9.1290939599275589e-03</internalNodes>
          <leafValues>
            -5.4848748445510864e-01 7.5859449803829193e-02</leafValues></_>
        <_>
          <internalNodes>
            0 -1 94 -5.4102786816656590e-03</internalNodes>
          <leafValues>
            4.6453642845153809e-01 -9.6920214593410492e-02</leafValues></_>
        <_>
          <internalNodes>
            0 -1 90 5.2622291259467602e-03</internalNodes>
          <leafValues>
            -1.5041019022464752e-01 3.3318963646888733e-01</leafValues></_>
        <_>
          <internalNodes>
            0 -1 44 3.2496913336217403e-03</internalNodes>
          <leafValues>
            -1.8539406359195709e-01 2.5427418947219849e-01</leafValues></_>
        <_>
          <internalNodes>
            0 -1 46 -1.6471387352794409e-03</internalNodes>
          <leafValues>
            3.8796395063400269e-01 -1.4675058424472809e-01</leafValues></_>
        <_>
          <internalNodes>
            0 -1 11 7.7079057693481445e-02</internalNodes>
          <leafValues>
            -1.1749663203954697e-01 4.2230403423309326e-01</leafValues></_>
        <_>
          <internalNodes>
            0 -1 42 -1.5999474562704563e-03</internalNodes>
          <leafValues>
            2.3259612917900085e-01 -2.0720802247524261e-01</leafValues></_>
        <_>
          <internalNodes>
            0 -1 16 3.3417731523513794e-02</internalNodes>
          <leafValues>
            -1.2217631936073303e-01 4.0198916196823120e-01</leafValues></_>
        <_>
          <internalNodes>
            0 -1 58 -2.6537044905126095e-03</internalNodes>
          <leafValues>
            3.8636854290962219e-01 -1.1757285147905350e-01</leafValues></_>
        <_>
          <internalNodes>
            0 -1 104 1.6627720324322581e-03</internalNodes>
          <leafValues>
            8.2651048898696899e-02 -6.4447146654129028e-01</leafValues></_>
        <_>
          <internalNodes>
            0 -1 106 7.6906080357730389e-03</internalNodes>
          <leafValues>
            4.4459924101829529e-02 -8.3578956127166748e-01</leafValues></_>
        <_>
          <internalNodes>
            0 -1 114 4.5833713375031948e-04</internalNodes>
          <leafValues>
            -2.1281795203685760e-01 1.9927144050598145e-01</leafValues></_>
        <_>
          <internalNodes>
            0 -1 132 -3.1854305416345596e-03</internalNodes>
          <leafValues>
            -7.9850471019744873e-01 5.5227030068635941e-02</leafValues></_>
        <_>
          <internalNodes>
            0 -1 20 -4.9405763857066631e-03</internalNodes>
          <leafValues>
            3.1290608644485474e-01 -1.4772474765777588e-01</leafValues></_>
        <_>
          <internalNodes>
            0 -1 5 3.7255957722663879e-02</internalNodes>
          <leafValues>
            -9.4516105949878693e-02 4.2755383253097534e-01</leafValues></_>
        <_>
          <internalNodes>
            0 -1 133 5.8968923985958099e-03</internalNodes>
          <leafValues>
            6.9065168499946594e-02 -7.2303485870361328e-01</leafValues></_>
        <_>
          <internalNodes>
            0 -1 82 -6.1122626066207886e-03</internalNodes>
          <leafValues>
            1.8849982321262360e-01 -2.1956752240657806e-01</leafValues></_>
        <_>
          <internalNodes>
            0 -1 144 1.4592600055038929e-03</internalNodes>
          <leafValues>
            -1.3758458197116852e-01 3.2776707410812378e-01</leafValues></_>
        <_>
          <internalNodes>
            0 -1 136 -3.6417666822671890e-02</internalNodes>
          <leafValues>
            5.0101113319396973e-01 -7.9704836010932922e-02</leafValues></_>
        <_>
          <internalNodes>
            0 -1 141 2.8562808874994516e-03</internalNodes>
          <leafValues>
            -9.3948401510715485e-02 4.2813503742218018e-01</leafValues></_>
        <_>
          <internalNodes>
            0 -1 95 1.8604976357892156e-03</internalNodes>
          <leafValues>
            -1.2999671697616577e-01 3.0998647212982178e-01</leafValues></_>
        <_>
          <internalNodes>
            0 -1 93 -2.1291498094797134e-02</internalNodes>
          <leafValues>
            -6.8065851926803589e-01 6.5940186381340027e-02</leafValues></_></weakClassifiers></_></stages>
  <features>
    <_>
      <rects>
        <_>
          0 10 12 9 -1.</_>
        <_>
          6 10 6 9 2.</_></rects>
      <tilted>0</tilted></_>
    <_>
      <rects>
        <_>
          1 0 12 2 -1.</_>
        <_>
          1 0 6 1 2.</_>
        <_>
          7 1 6 1 2.</_></rects>
      <tilted>0</tilted></_>
    <_>
      <rects>
        <_>
          1 3 8 15 -1.</_>
        <_>
          5 3 4 15 2.</_></rects>
      <tilted>0</tilted></_>
    <_>
      <rects>
        <_>
          1 4 6 13 -1.</_>
        <_>
          4 4 3 13 2.</_></rects>
      <tilted>0</tilted></_>
    <_>
      <rects>
        <_>
          1 5 8 14 -1.</_>
        <_>
          5 5 4 14 2.</_></rects>
      <tilted>0</tilted></_>
    <_>
      <rects>
        <_>
          1 7 6 10 -1.</_>
        <_>
          1 7 3 5 2.</_>
        <_>
          4 12 3 5 2.</_></rects>
      <tilted>0</tilted></_>
    <_>
      <rects>
        <_>
          1 7 9 6 -1.</_>
        <_>
          4 7 3 6 3.</_></rects>
      <tilted>0</tilted></_>
    <_>
      <rects>
        <_>
          2 8 9 4 -1.</_>
        <_>
          5 8 3 4 3.</_></rects>
      <tilted>0</tilted></_>
    <_>
      <rects>
        <_>
          2 8 9 5 -1.</_>
        <_>
          5 8 3 5 3.</_></rects>
      <tilted>0</tilted></_>
    <_>
      <rects>
        <_>
          2 9 9 3 -1.</_>
        <_>
          5 9 3 3 3.</_></rects>
      <tilted>0</tilted></_>
    <_>
      <rects>
        <_>
          2 9 18 4 -1.</_>
        <_>
          8 9 6 4 3.</_></rects>
      <tilted>0</tilted></_>
    <_>
      <rects>
        <_>
          2 11 18 2 -1.</_>
        <_>
          8 11 6 2 3.</_></rects>
      <tilted>0</tilted></_>
    <_>
      <rects>
        <_>
          3 6 2 8 -1.</_>
        <_>
          3 6 1 4 2.</_>
        <_>
          4 10 1 4 2.</_></rects>
      <tilted>0</tilted></_>
    <_>
      <rects>
        <_>
          3 7 4 11 -1.</_>
        <_>
          5 7 2 11 2.</_></rects>
      <tilted>0</tilted></_>
    <_>
      <rects>
        <_>
          3 8 4 8 -1.</_>
        <_>
          3 8 2 4 2.</_>
        <_>
          5 12 2 4 2.</_></rects>
      <tilted>0</tilted></_>
    <_>
      <rects>
        <_>
          3 9 3 2 -1.</_>
        <_>
          4 9 1 2 3.</_></rects>
      <tilted>0</tilted></_>
    <_>
      <rects>
        <_>
          4 4 6 12 -1.</_>
        <_>
          4 4 3 6 2.</_>
        <_>
          7 10 3 6 2.</_></rects>
      <tilted>0</tilted></_>
    <_>
      <rects>
        <_>
          4 7 11 10 -1.</_>
        <_>
          4 12 11 5 2.</_></rects>
      <tilted>0</tilted></_>
    <_>
      <rects>
        <_>
          4 8 12 3 -1.</_>
        <_>
          4 9 12 1 3.</_></rects>
      <tilted>0</tilted></_>
    <_>
      <rects>
        <_>
          4 9 3 2 -1.</_>
        <_>
          5 9 1 2 3.</_></rects>
      <tilted>0</tilted></_>
    <_>
      <rects>
        <_>
          4 9 2 6 -1.</_>
        <_>
          4 9 1 3 2.</_>
        <_>
          5 12 1 3 2.</_></rects>
      <tilted>0</tilted></_>
    <_>
      <rects>
        <_>
          4 10 2 6 -1.</_>
        <_>
          4 10 1 3 2.</_>
        <_>
          5 13 1 3 2.</_></rects>
      <tilted>0</tilted></_>
    <_>
      <rects>
        <_>
          4 10 10 8 -1.</_>
        <_>
          4 14 10 4 2.</_></rects>
      <tilted>0</tilted></_>
    <_>
      <rects>
        <_>
          4 15 6 4 -1.</_>
        <_>
          4 15 3 2 2.</_>
        <_>
          7 17 3 2 2.</_></rects>
      <tilted>0</tilted></_>
    <_>
      <rects>
        <_>
          5 4 6 2 -1.</_>
        <_>
          7 4 2 2 3.</_></rects>
      <tilted>0</tilted></_>
    <_>
      <rects>
        <_>
          5 4 10 3 -1.</_>
        <_>
          5 5 10 1 3.</_></rects>
      <tilted>0</tilted></_>
    <_>
      <rects>
        <_>
          5 5 10 3 -1.</_>
        <_>
          10 5 5 3 2.</_></rects>
      <tilted>0</tilted></_>
    <_>
      <rects>
        <_>
          5 5 6 2 -1.</_>
        <_>
          5 6 6 1 2.</_></rects>
      <tilted>0</tilted></_>
    <_>
      <rects>
        <_>
          5 8 6 4 -1.</_>
        <_>
          8 8 3 4 2.</_></rects>
      <tilted>0</tilted></_>
    <_>
      <rects>
        <_>
          5 9 2 4 -1.</_>
        <_>
          5 11 2 2 2.</_></rects>
      <tilted>0</tilted></_>
    <_>
      <rects>
        <_>
          5 9 6 4 -1.</_>
        <_>
          8 9 3 4 2.</_></rects>
      <tilted>0</tilted></_>
    <_>
      <rects>
        <_>
          5 9 6 8 -1.</_>
        <_>
          5 9 3 4 2.</_>
        <_>
          8 13 3 4 2.</_></rects>
      <tilted>0</tilted></_>
    <_>
      <rects>
        <_>
          5 9 7 3 -1.</_>
        <_>
          5 10 7 1 3.</_></rects>
      <tilted>0</tilted></_>
    <_>
      <rects>
        <_>
          5 12 8 6 -1.</_>
        <_>
          5 15 8 3 2.</_></rects>
      <tilted>0</tilted></_>
    <_>
      <rects>
        <_>
          6 0 7 4 -1.</_>
        <_>
          6 2 7 2 2.</_></rects>
      <tilted>0</tilted></_>
    <_>
      <rects>
        <_>
          6 3 2 6 -1.</_>
        <_>
          6 3 1 3 2.</_>
        <_>
          7 6 1 3 2.</_></rects>
      <tilted>0</tilted></_>
    <_>
      <rects>
        <_>
          6 3 6 2 -1.</_>
        <_>
          8 3 2 2 3.</_></rects>
      <tilted>0</tilted></_>
    <_>
      <rects>
        <_>
          6 3 5 3 -1.</_>
        <_>
          6 4 5 1 3.</_></rects>
      <tilted>0</tilted></_>
    <_>
      <rects>
        <_>
          6 4 7 2 -1.</_>
        <_>
          6 5 7 1 2.</_></rects>
      <tilted>0</tilted></_>
    <_>
      <rects>
        <_>
          6 7 6 4 -1.</_>
        <_>
          6 7 3 2 2.</_>
        <_>
          9 9 3 2 2.</_></rects>
      <tilted>0</tilted></_>
    <_>
      <rects>
        <_>
          6 8 6 4 -1.</_>
        <_>
          9 8 3 4 2.</_></rects>
      <tilted>0</tilted></_>
    <_>
      <rects>
        <_>
          6 9 10 1 -1.</_>
        <_>
          11 9 5 1 2.</_></rects>
      <tilted>0</tilted></_>
    <_>
      <rects>
        <_>
          6 12 4 5 -1.</_>
        <_>
          8 12 2 5 2.</_></rects>
      <tilted>0</tilted></_>
    <_>
      <rects>
        <_>
          6 16 7 3 -1.</_>
        <_>
          6 17 7 1 3.</_></rects>
      <tilted>0</tilted></_>
    <_>
      <rects>
        <_>
          7 0 1 6 -1.</_>
        <_>
          7 3 1 3 2.</_></rects>
      <tilted>0</tilted></_>
    <_>
      <rects>
        <_>
          7 0 2 2 -1.</_>
        <_>
          7 1 2 1 2.</_></rects>
      <tilted>0</tilted></_>
    <_>
      <rects>
        <_>
          7 0 3 2 -1.</_>
        <_>
          7 1 3 1 2.</_></rects>
      <tilted>0</tilted></_>
    <_>
      <rects>
        <_>
          7 2 4 3 -1.</_>
        <_>
          7 3 4 1 3.</_></rects>
      <tilted>0</tilted></_>
    <_>
      <rects>
        <_>
          7 2 6 4 -1.</_>
        <_>
          7 4 6 2 2.</_></rects>
      <tilted>0</tilted></_>
    <_>
      <rects>
        <_>
          7 3 1 9 -1.</_>
        <_>
          7 6 1 3 3.</_></rects>
      <tilted>0</tilted></_>
    <_>
      <rects>
        <_>
          7 4 6 6 -1.</_>
        <_>
          9 4 2 6 3.</_></rects>
      <tilted>0</tilted></_>
    <_>
      <rects>
        <_>
          7 6 8 7 -1.</_>
        <_>
          11 6 4 7 2.</_></rects>
      <tilted>0</tilted></_>
    <_>
      <rects>
        <_>
          7 6 8 3 -1.</_>
        <_>
          7 7 8 1 3.</_></rects>
      <tilted>0</tilted></_>
    <_>
      <rects>
        <_>
          7 7 8 4 -1.</_>
        <_>
          11 7 4 4 2.</_></rects>
      <tilted>0</tilted></_>
    <_>
      <rects>
        <_>
          7 8 8 2 -1.</_>
        <_>
          11 8 4 2 2.</_></rects>
      <tilted>0</tilted></_>
    <_>
      <rects>
        <_>
          7 10 4 8 -1.</_>
        <_>
          7 14 4 4 2.</_></rects>
      <tilted>0</tilted></_>
    <_>
      <rects>
        <_>
          7 10 4 10 -1.</_>
        <_>
          7 15 4 5 2.</_></rects>
      <tilted>0</tilted></_>
    <_>
      <rects>
        <_>
          7 18 6 2 -1.</_>
        <_>
          7 19 6 1 2.</_></rects>
      <tilted>0</tilted></_>
    <_>
      <rects>
        <_>
          8 0 4 2 -1.</_>
        <_>
          8 0 2 1 2.</_>
        <_>
          10 1 2 1 2.</_></rects>
      <tilted>0</tilted></_>
    <_>
      <rects>
        <_>
          8 0 5 2 -1.</_>
        <_>
          8 1 5 1 2.</_></rects>
      <tilted>0</tilted></_>
    <_>
      <rects>
        <_>
          8 0 5 3 -1.</_>
        <_>
          8 1 5 1 3.</_></rects>
      <tilted>0</tilted></_>
    <_>
      <rects>
        <_>
          8 2 6 2 -1.</_>
        <_>
          10 2 2 2 3.</_></rects>
      <tilted>0</tilted></_>
    <_>
      <rects>
        <_>
          8 2 5 4 -1.</_>
        <_>
          8 4 5 2 2.</_></rects>
      <tilted>0</tilted></_>
    <_>
      <rects>
        <_>
          8 3 4 2 -1.</_>
        <_>
          8 4 4 1 2.</_></rects>
      <tilted>0</tilted></_>
    <_>
      <rects>
        <_>
          8 5 8 8 -1.</_>
        <_>
          12 5 4 8 2.</_></rects>
      <tilted>0</tilted></_>
    <_>
      <rects>
        <_>
          8 6 3 2 -1.</_>
        <_>
          9 6 1 2 3.</_></rects>
      <tilted>0</tilted></_>
    <_>
      <rects>
        <_>
          8 8 3 2 -1.</_>
        <_>
          9 8 1 2 3.</_></rects>
      <tilted>0</tilted></_>
    <_>
      <rects>
        <_>
          8 8 6 6 -1.</_>
        <_>
          10 8 2 6 3.</_></rects>
      <tilted>0</tilted></_>
    <_>
      <rects>
        <_>
          8 8 3 12 -1.</_>
        <_>
          8 14 3 6 2.</_></rects>
      <tilted>0</tilted></_>
    <_>
      <rects>
        <_>
          8 8 8 2 -1.</_>
        <_>
          12 8 4 2 2.</_></rects>
      <tilted>0</tilted></_>
    <_>
      <rects>
        <_>
          8 8 5 10 -1.</_>
        <_>
          8 13 5 5 2.</_></rects>
      <tilted>0</tilted></_>
    <_>
      <rects>
        <_>
          8 8 6 10 -1.</_>
        <_>
          8 13 6 5 2.</_></rects>
      <tilted>0</tilted></_>
    <_>
      <rects>
        <_>
          8 9 6 2 -1.</_>
        <_>
          11 9 3 2 2.</_></rects>
      <tilted>0</tilted></_>
    <_>
      <rects>
        <_>
          8 9 3 10 -1.</_>
        <_>
          8 14 3 5 2.</_></rects>
      <tilted>0</tilted></_>
    <_>
      <rects>
        <_>
          8 9 4 10 -1.</_>
        <_>
          8 14 4 5 2.</_></rects>
      <tilted>0</tilted></_>
    <_>
      <rects>
        <_>
          8 15 6 2 -1.</_>
        <_>
          8 16 6 1 2.</_></rects>
      <tilted>0</tilted></_>
    <_>
      <rects>
        <_>
          8 16 4 3 -1.</_>
        <_>
          8 17 4 1 3.</_></rects>
      <tilted>0</tilted></_>
    <_>
      <rects>
        <_>
          8 18 4 2 -1.</_>
        <_>
          8 19 4 1 2.</_></rects>
      <tilted>0</tilted></_>
    <_>
      <rects>
        <_>
          8 18 5 2 -1.</_>
        <_>
          8 19 5 1 2.</_></rects>
      <tilted>0</tilted></_>
    <_>
      <rects>
        <_>
          9 0 3 2 -1.</_>
        <_>
          9 1 3 1 2.</_></rects>
      <tilted>0</tilted></_>
    <_>
      <rects>
        <_>
          9 0 4 2 -1.</_>
        <_>
          9 1 4 1 2.</_></rects>
      <tilted>0</tilted></_>
    <_>
      <rects>
        <_>
          9 0 4 3 -1.</_>
        <_>
          9 1 4 1 3.</_></rects>
      <tilted>0</tilted></_>
    <_>
      <rects>
        <_>
          9 0 10 4 -1.</_>
        <_>
          9 0 5 2 2.</_>
        <_>
          14 2 5 2 2.</_></rects>
      <tilted>0</tilted></_>
    <_>
      <rects>
        <_>
          9 1 3 9 -1.</_>
        <_>
          10 1 1 9 3.</_></rects>
      <tilted>0</tilted></_>
    <_>
      <rects>
        <_>
          9 1 6 2 -1.</_>
        <_>
          9 1 3 1 2.</_>
        <_>
          12 2 3 1 2.</_></rects>
      <tilted>0</tilted></_>
    <_>
      <rects>
        <_>
          9 2 1 2 -1.</_>
        <_>
          9 3 1 1 2.</_></rects>
      <tilted>0</tilted></_>
    <_>
      <rects>
        <_>
          9 2 1 3 -1.</_>
        <_>
          9 3 1 1 3.</_></rects>
      <tilted>0</tilted></_>
    <_>
      <rects>
        <_>
          9 2 2 3 -1.</_>
        <_>
          9 3 2 1 3.</_></rects>
      <tilted>0</tilted></_>
    <_>
      <rects>
        <_>
          9 2 6 6 -1.</_>
        <_>
          11 2 2 6 3.</_></rects>
      <tilted>0</tilted></_>
    <_>
      <rects>
        <_>
          9 2 4 4 -1.</_>
        <_>
          9 4 4 2 2.</_></rects>
      <tilted>0</tilted></_>
    <_>
      <rects>
        <_>
          9 3 3 6 -1.</_>
        <_>
          10 3 1 6 3.</_></rects>
      <tilted>0</tilted></_>
    <_>
      <rects>
        <_>
          9 3 4 2 -1.</_>
        <_>
          9 4 4 1 2.</_></rects>
      <tilted>0</tilted></_>
    <_>
      <rects>
        <_>
          9 6 3 3 -1.</_>
        <_>
          10 6 1 3 3.</_></rects>
      <tilted>0</tilted></_>
    <_>
      <rects>
        <_>
          9 6 1 12 -1.</_>
        <_>
          9 12 1 6 2.</_></rects>
      <tilted>0</tilted></_>
    <_>
      <rects>
        <_>
          9 7 3 2 -1.</_>
        <_>
          10 7 1 2 3.</_></rects>
      <tilted>0</tilted></_>
    <_>
      <rects>
        <_>
          9 8 2 6 -1.</_>
        <_>
          9 8 1 3 2.</_>
        <_>
          10 11 1 3 2.</_></rects>
      <tilted>0</tilted></_>
    <_>
      <rects>
        <_>
          9 8 4 6 -1.</_>
        <_>
          9 10 4 2 3.</_></rects>
      <tilted>0</tilted></_>
    <_>
      <rects>
        <_>
          9 10 3 2 -1.</_>
        <_>
          10 10 1 2 3.</_></rects>
      <tilted>0</tilted></_>
    <_>
      <rects>
        <_>
          9 10 1 6 -1.</_>
        <_>
          9 13 1 3 2.</_></rects>
      <tilted>0</tilted></_>
    <_>
      <rects>
        <_>
          9 10 4 5 -1.</_>
        <_>
          11 10 2 5 2.</_></rects>
      <tilted>0</tilted></_>
    <_>
      <rects>
        <_>
          9 13 6 2 -1.</_>
        <_>
          11 13 2 2 3.</_></rects>
      <tilted>0</tilted></_>
    <_>
      <rects>
        <_>
          9 13 6 4 -1.</_>
        <_>
          11 13 2 4 3.</_></rects>
      <tilted>0</tilted></_>
    <_>
      <rects>
        <_>
          9 17 2 3 -1.</_>
        <_>
          9 18 2 1 3.</_></rects>
      <tilted>0</tilted></_>
    <_>
      <rects>
        <_>
          10 0 1 2 -1.</_>
        <_>
          10 1 1 1 2.</_></rects>
      <tilted>0</tilted></_>
    <_>
      <rects>
        <_>
          10 3 1 3 -1.</_>
        <_>
          10 4 1 1 3.</_></rects>
      <tilted>0</tilted></_>
    <_>
      <rects>
        <_>
          10 3 4 3 -1.</_>
        <_>
          10 4 4 1 3.</_></rects>
      <tilted>0</tilted></_>
    <_>
      <rects>
        <_>
          10 10 2 5 -1.</_>
        <_>
          11 10 1 5 2.</_></rects>
      <tilted>0</tilted></_>
    <_>
      <rects>
        <_>
          10 11 2 1 -1.</_>
        <_>
          11 11 1 1 2.</_></rects>
      <tilted>0</tilted></_>
    <_>
      <rects>
        <_>
          10 17 2 3 -1.</_>
        <_>
          10 18 2 1 3.</_></rects>
      <tilted>0</tilted></_>
    <_>
      <rects>
        <_>
          10 18 4 1 -1.</_>
        <_>
          12 18 2 1 2.</_></rects>
      <tilted>0</tilted></_>
    <_>
      <rects>
        <_>
          11 0 1 2 -1.</_>
        <_>
          11 1 1 1 2.</_></rects>
      <tilted>0</tilted></_>
    <_>
      <rects>
        <_>
          11 2 6 14 -1.</_>
        <_>
          11 2 3 7 2.</_>
        <_>
          14 9 3 7 2.</_></rects>
      <tilted>0</tilted></_>
    <_>
      <rects>
        <_>
          11 3 2 2 -1.</_>
        <_>
          11 4 2 1 2.</_></rects>
      <tilted>0</tilted></_>
    <_>
      <rects>
        <_>
          11 7 1 6 -1.</_>
        <_>
          11 9 1 2 3.</_></rects>
      <tilted>0</tilted></_>
    <_>
      <rects>
        <_>
          11 8 2 3 -1.</_>
        <_>
          11 9 2 1 3.</_></rects>
      <tilted>0</tilted></_>
    <_>
      <rects>
        <_>
          11 9 1 3 -1.</_>
        <_>
          11 10 1 1 3.</_></rects>
      <tilted>0</tilted></_>
    <_>
      <rects>
        <_>
          11 9 3 2 -1.</_>
        <_>
          12 9 1 2 3.</_></rects>
      <tilted>0</tilted></_>
    <_>
      <rects>
        <_>
          11 10 3 1 -1.</_>
        <_>
          12 10 1 1 3.</_></rects>
      <tilted>0</tilted></_>
    <_>
      <rects>
        <_>
          11 10 2 3 -1.</_>
        <_>
          12 10 1 3 2.</_></rects>
      <tilted>0</tilted></_>
    <_>
      <rects>
        <_>
          11 11 1 2 -1.</_>
        <_>
          11 12 1 1 2.</_></rects>
      <tilted>0</tilted></_>
    <_>
      <rects>
        <_>
          12 4 6 6 -1.</_>
        <_>
          15 4 3 6 2.</_></rects>
      <tilted>0</tilted></_>
    <_>
      <rects>
        <_>
          12 5 6 4 -1.</_>
        <_>
          15 5 3 4 2.</_></rects>
      <tilted>0</tilted></_>
    <_>
      <rects>
        <_>
          12 5 8 10 -1.</_>
        <_>
          16 5 4 10 2.</_></rects>
      <tilted>0</tilted></_>
    <_>
      <rects>
        <_>
          12 7 3 3 -1.</_>
        <_>
          12 8 3 1 3.</_></rects>
      <tilted>0</tilted></_>
    <_>
      <rects>
        <_>
          12 9 3 3 -1.</_>
        <_>
          13 9 1 3 3.</_></rects>
      <tilted>0</tilted></_>
    <_>
      <rects>
        <_>
          12 9 6 3 -1.</_>
        <_>
          14 9 2 3 3.</_></rects>
      <tilted>0</tilted></_>
    <_>
      <rects>
        <_>
          12 10 2 1 -1.</_>
        <_>
          13 10 1 1 2.</_></rects>
      <tilted>0</tilted></_>
    <_>
      <rects>
        <_>
          12 10 2 4 -1.</_>
        <_>
          12 10 1 2 2.</_>
        <_>
          13 12 1 2 2.</_></rects>
      <tilted>0</tilted></_>
    <_>
      <rects>
        <_>
          12 15 6 3 -1.</_>
        <_>
          14 15 2 3 3.</_></rects>
      <tilted>0</tilted></_>
    <_>
      <rects>
        <_>
          12 16 2 3 -1.</_>
        <_>
          13 16 1 3 2.</_></rects>
      <tilted>0</tilted></_>
    <_>
      <rects>
        <_>
          13 3 2 4 -1.</_>
        <_>
          13 3 1 2 2.</_>
        <_>
          14 5 1 2 2.</_></rects>
      <tilted>0</tilted></_>
    <_>
      <rects>
        <_>
          13 7 2 3 -1.</_>
        <_>
          13 8 2 1 3.</_></rects>
      <tilted>0</tilted></_>
    <_>
      <rects>
        <_>
          13 9 1 3 -1.</_>
        <_>
          13 10 1 1 3.</_></rects>
      <tilted>0</tilted></_>
    <_>
      <rects>
        <_>
          13 9 3 3 -1.</_>
        <_>
          13 10 3 1 3.</_></rects>
      <tilted>0</tilted></_>
    <_>
      <rects>
        <_>
          13 10 3 3 -1.</_>
        <_>
          14 10 1 3 3.</_></rects>
      <tilted>0</tilted></_>
    <_>
      <rects>
        <_>
          13 11 2 1 -1.</_>
        <_>
          14 11 1 1 2.</_></rects>
      <tilted>0</tilted></_>
    <_>
      <rects>
        <_>
          13 12 4 6 -1.</_>
        <_>
          15 12 2 6 2.</_></rects>
      <tilted>0</tilted></_>
    <_>
      <rects>
        <_>
          13 16 2 3 -1.</_>
        <_>
          14 16 1 3 2.</_></rects>
      <tilted>0</tilted></_>
    <_>
      <rects>
        <_>
          14 7 2 4 -1.</_>
        <_>
          14 7 1 2 2.</_>
        <_>
          15 9 1 2 2.</_></rects>
      <tilted>0</tilted></_>
    <_>
      <rects>
        <_>
          14 10 3 1 -1.</_>
        <_>
          15 10 1 1 3.</_></rects>
      <tilted>0</tilted></_>
    <_>
      <rects>
        <_>
          14 12 3 6 -1.</_>
        <_>
          15 12 1 6 3.</_></rects>
      <tilted>0</tilted></_>
    <_>
      <rects>
        <_>
          14 13 2 2 -1.</_>
        <_>
          15 13 1 2 2.</_></rects>
      <tilted>0</tilted></_>
    <_>
      <rects>
        <_>
          15 6 2 6 -1.</_>
        <_>
          15 6 1 3 2.</_>
        <_>
          16 9 1 3 2.</_></rects>
      <tilted>0</tilted></_>
    <_>
      <rects>
        <_>
          15 9 2 3 -1.</_>
        <_>
          16 9 1 3 2.</_></rects>
      <tilted>0</tilted></_>
    <_>
      <rects>
        <_>
          15 11 2 3 -1.</_>
        <_>
          16 11 1 3 2.</_></rects>
      <tilted>0</tilted></_></features></cascade>
</opencv_storage>
