<?xml version="1.0"?>
<opencv_storage>
<cascade>
  <stageType>BOOST</stageType>
  <featureType>HAAR</featureType>
  <height>20</height>
  <width>20</width>
  <stageParams>
    <boostType>GAB</boostType>
    <minHitRate>9.9500000476837158e-01</minHitRate>
    <maxFalseAlarm>5.0000000000000000e-01</maxFalseAlarm>
    <weightTrimRate>9.4999999999999996e-01</weightTrimRate>
    <maxDepth>1</maxDepth>
    <maxWeakCount>100</maxWeakCount></stageParams>
  <featureParams>
    <maxCatCount>0</maxCatCount>
    <featSize>1</featSize>
    <mode>BASIC</mode></featureParams>
  <stageNum>8</stageNum>
  <stages>
    <!-- stage 0 -->
    <_>
      <maxWeakCount>2</maxWeakCount>
      <stageThreshold>-1.5722090005874634e-01</stageThreshold>
      <weakClassifiers>
        <_>
          <internalNodes>
            0 -1 4 -1.4596020802855492e-02</internalNodes>
          <leafValues>
            9.1147994995117188e-01 -9.3501806259155273e-01</leafValues></_>
        <_>
          <internalNodes>
            0 -1 2 1.9272290170192719e-02</internalNodes>
          <leafValues>
            -9.0522825717926025e-01 7.7779716253280640e-01</leafValues></_></weakClassifiers></_>
    <!-- stage 1 -->
    <_>
      <maxWeakCount>3</maxWeakCount>
      <stageThreshold>4.1043725609779358e-01</stageThreshold>
      <weakClassifiers>
        <_>
          <internalNodes>
            0 -1 6 -3.5260329023003578e-03</internalNodes>
          <leafValues>
            7.9763472080230713e-01 -8.6610877513885498e-01</leafValues></_>
        <_>
          <internalNodes>
            0 -1 12 -6.8178010405972600e-04</internalNodes>
          <leafValues>
            6.8300884962081909e-01 -9.1318625211715698e-01</leafValues></_>
        <_>
          <internalNodes>
            0 -1 8 9.9210664629936218e-03</internalNodes>
          <leafValues>
            -8.9153385162353516e-01 5.9353715181350708e-01</leafValues></_></weakClassifiers></_>
    <!-- stage 2 -->
    <_>
      <maxWeakCount>1</maxWeakCount>
      <stageThreshold>6.8969696760177612e-01</stageThreshold>
      <weakClassifiers>
        <_>
          <internalNodes>
            0 -1 13 2.4490721989423037e-03</internalNodes>
          <leafValues>
            -9.6571427583694458e-01 6.8969696760177612e-01</leafValues></_></weakClassifiers></_>
    <!-- stage 3 -->
    <_>
      <maxWeakCount>3</maxWeakCount>
      <stageThreshold>-8.8644319772720337e-01</stageThreshold>
      <weakClassifiers>
        <_>
          <internalNodes>
            0 -1 3 1.6873134300112724e-02</internalNodes>
          <leafValues>
            -6.8539327383041382e-01 7.9536151885986328e-01</leafValues></_>
        <_>
          <internalNodes>
            0 -1 17 -6.9943889684509486e-05</internalNodes>
          <leafValues>
            5.7192248106002808e-01 -9.6980077028274536e-01</leafValues></_>
        <_>
          <internalNodes>
            0 -1 9 1.1775016784667969e-02</internalNodes>
          <leafValues>
            -7.7297240495681763e-01 6.0460096597671509e-01</leafValues></_></weakClassifiers></_>
    <!-- stage 4 -->
    <_>
      <maxWeakCount>2</maxWeakCount>
      <stageThreshold>-1.4949487149715424e-01</stageThreshold>
      <weakClassifiers>
        <_>
          <internalNodes>
            0 -1 14 -2.7449120534583926e-04</internalNodes>
          <leafValues>
            6.9756096601486206e-01 -9.5555555820465088e-01</leafValues></_>
        <_>
          <internalNodes>
            0 -1 1 3.2741881906986237e-02</internalNodes>
          <leafValues>
            -5.9672045707702637e-01 8.0606067180633545e-01</leafValues></_></weakClassifiers></_>
    <!-- stage 5 -->
    <_>
      <maxWeakCount>3</maxWeakCount>
      <stageThreshold>2.6512584090232849e-01</stageThreshold>
      <weakClassifiers>
        <_>
          <internalNodes>
            0 -1 16 1.7959121032617986e-04</internalNodes>
          <leafValues>
            6.9249689579010010e-01 -8.7165772914886475e-01</leafValues></_>
        <_>
          <internalNodes>
            0 -1 10 2.2593367844820023e-02</internalNodes>
          <leafValues>
            -5.9725582599639893e-01 7.1514225006103516e-01</leafValues></_>
        <_>
          <internalNodes>
            0 -1 19 -1.1191950179636478e-03</internalNodes>
          <leafValues>
            4.2164131999015808e-01 -9.8633891344070435e-01</leafValues></_></weakClassifiers></_>
    <!-- stage 6 -->
    <_>
      <maxWeakCount>3</maxWeakCount>
      <stageThreshold>-7.2873663902282715e-01</stageThreshold>
      <weakClassifiers>
        <_>
          <internalNodes>
            0 -1 20 -2.5714177172631025e-03</internalNodes>
          <leafValues>
            -8.9108908176422119e-01 7.2681707143783569e-01</leafValues></_>
        <_>
          <internalNodes>
            0 -1 7 7.5010573491454124e-03</internalNodes>
          <leafValues>
            -7.9679393768310547e-01 5.7756721973419189e-01</leafValues></_>
        <_>
          <internalNodes>
            0 -1 0 9.9731311202049255e-03</internalNodes>
          <leafValues>
            -6.5875971317291260e-01 5.9854173660278320e-01</leafValues></_></weakClassifiers></_>
    <!-- stage 7 -->
    <_>
      <maxWeakCount>4</maxWeakCount>
      <stageThreshold>-5.9879809617996216e-01</stageThreshold>
      <weakClassifiers>
        <_>
          <internalNodes>
            0 -1 15 -2.3423387028742582e-04</internalNodes>
          <leafValues>
            6.9420468807220459e-01 -8.6243385076522827e-01</leafValues></_>
        <_>
          <internalNodes>
            0 -1 11 3.6330320872366428e-03</internalNodes>
          <leafValues>
            -5.8399021625518799e-01 7.4700254201889038e-01</leafValues></_>
        <_>
          <internalNodes>
            0 -1 18 -5.0063908565789461e-04</internalNodes>
          <leafValues>
            4.8950931429862976e-01 -9.6289157867431641e-01</leafValues></_>
        <_>
          <internalNodes>
            0 -1 5 -1.5679016709327698e-02</internalNodes>
          <leafValues>
            3.5811671614646912e-01 -9.1102260351181030e-01</leafValues></_></weakClassifiers></_></stages>
  <features>
    <_>
      <rects>
        <_>
          0 4 6 4 -1.</_>
        <_>
          3 4 3 4 2.</_></rects>
      <tilted>0</tilted></_>
    <_>
      <rects>
        <_>
          0 8 4 7 -1.</_>
        <_>
          2 8 2 7 2.</_></rects>
      <tilted>0</tilted></_>
    <_>
      <rects>
        <_>
          1 9 6 4 -1.</_>
        <_>
          3 9 2 4 3.</_></rects>
      <tilted>0</tilted></_>
    <_>
      <rects>
        <_>
          1 10 6 2 -1.</_>
        <_>
          3 10 2 2 3.</_></rects>
      <tilted>0</tilted></_>
    <_>
      <rects>
        <_>
          3 8 6 3 -1.</_>
        <_>
          6 8 3 3 2.</_></rects>
      <tilted>0</tilted></_>
    <_>
      <rects>
        <_>
          4 3 4 8 -1.</_>
        <_>
          4 3 2 4 2.</_>
        <_>
          6 7 2 4 2.</_></rects>
      <tilted>0</tilted></_>
    <_>
      <rects>
        <_>
          6 6 2 4 -1.</_>
        <_>
          6 8 2 2 2.</_></rects>
      <tilted>0</tilted></_>
    <_>
      <rects>
        <_>
          6 12 12 3 -1.</_>
        <_>
          10 12 4 3 3.</_></rects>
      <tilted>0</tilted></_>
    <_>
      <rects>
        <_>
          7 4 12 4 -1.</_>
        <_>
          7 4 6 2 2.</_>
        <_>
          13 6 6 2 2.</_></rects>
      <tilted>0</tilted></_>
    <_>
      <rects>
        <_>
          7 5 12 11 -1.</_>
        <_>
          11 5 4 11 3.</_></rects>
      <tilted>0</tilted></_>
    <_>
      <rects>
        <_>
          8 1 4 6 -1.</_>
        <_>
          8 3 4 2 3.</_></rects>
      <tilted>0</tilted></_>
    <_>
      <rects>
        <_>
          9 6 2 6 -1.</_>
        <_>
          9 8 2 2 3.</_></rects>
      <tilted>0</tilted></_>
    <_>
      <rects>
        <_>
          10 14 3 2 -1.</_>
        <_>
          10 15 3 1 2.</_></rects>
      <tilted>0</tilted></_>
    <_>
      <rects>
        <_>
          11 8 6 3 -1.</_>
        <_>
          14 8 3 3 2.</_></rects>
      <tilted>0</tilted></_>
    <_>
      <rects>
        <_>
          11 13 4 2 -1.</_>
        <_>
          11 14 4 1 2.</_></rects>
      <tilted>0</tilted></_>
    <_>
      <rects>
        <_>
          12 4 4 2 -1.</_>
        <_>
          14 4 2 2 2.</_></rects>
      <tilted>0</tilted></_>
    <_>
      <rects>
        <_>
          13 6 4 2 -1.</_>
        <_>
          15 6 2 2 2.</_></rects>
      <tilted>0</tilted></_>
    <_>
      <rects>
        <_>
          14 5 1 4 -1.</_>
        <_>
          14 7 1 2 2.</_></rects>
      <tilted>0</tilted></_>
    <_>
      <rects>
        <_>
          15 6 1 6 -1.</_>
        <_>
          15 9 1 3 2.</_></rects>
      <tilted>0</tilted></_>
    <_>
      <rects>
        <_>
          15 7 1 8 -1.</_>
        <_>
          15 11 1 4 2.</_></rects>
      <tilted>0</tilted></_>
    <_>
      <rects>
        <_>
          15 9 2 4 -1.</_>
        <_>
          15 11 2 2 2.</_></rects>
      <tilted>0</tilted></_></features></cascade>
</opencv_storage>
