<?xml version="1.0"?>
<opencv_storage>
<stage19>
  <maxWeakCount>100</maxWeakCount>
  <stageThreshold>-7.1790611743927002e-01</stageThreshold>
  <weakClassifiers>
    <_>
      <internalNodes>
        0 -1 57596 -5.6654430227354169e-04</internalNodes>
      <leafValues>
        4.3094447255134583e-01 -1.3490725308656693e-02</leafValues></_>
    <_>
      <internalNodes>
        0 -1 31968 3.6483537405729294e-03</internalNodes>
      <leafValues>
        -8.9753605425357819e-02 2.2194917500019073e-01</leafValues></_>
    <_>
      <internalNodes>
        0 -1 26221 1.6547750681638718e-02</internalNodes>
      <leafValues>
        -9.3366041779518127e-02 2.2116878628730774e-01</leafValues></_>
    <_>
      <internalNodes>
        0 -1 53673 -1.7458478687331080e-03</internalNodes>
      <leafValues>
        -3.6688870191574097e-01 1.1625700630247593e-02</leafValues></_>
    <_>
      <internalNodes>
        0 -1 52936 -3.8190226769074798e-04</internalNodes>
      <leafValues>
        1.0018842667341232e-01 -1.9003048539161682e-01</leafValues></_>
    <_>
      <internalNodes>
        0 -1 57784 4.4774576963391155e-05</internalNodes>
      <leafValues>
        -1.0024486482143402e-01 1.6167382895946503e-01</leafValues></_>
    <_>
      <internalNodes>
        0 -1 38724 -1.6594430198892951e-03</internalNodes>
      <leafValues>
        -2.6647546887397766e-01 5.3804092109203339e-02</leafValues></_>
    <_>
      <internalNodes>
        0 -1 43817 -1.6870698891580105e-04</internalNodes>
      <leafValues>
        1.1925675719976425e-01 -1.3799108564853668e-01</leafValues></_>
    <_>
      <internalNodes>
        0 -1 64732 1.6451065894216299e-03</internalNodes>
      <leafValues>
        -4.5896843075752258e-02 3.3972305059432983e-01</leafValues></_>
    <_>
      <internalNodes>
        0 -1 64728 -6.5994978649541736e-04</internalNodes>
      <leafValues>
        -1.3629530370235443e-01 1.1728270351886749e-01</leafValues></_>
    <_>
      <internalNodes>
        0 -1 48617 -4.2933691293001175e-02</internalNodes>
      <leafValues>
        2.8459876775741577e-01 -5.3224131464958191e-02</leafValues></_>
    <_>
      <internalNodes>
        0 -1 67156 3.6376893520355225e-02</internalNodes>
      <leafValues>
        -6.1526417732238770e-02 2.2180324792861938e-01</leafValues></_>
    <_>
      <internalNodes>
        0 -1 60678 8.1069804728031158e-02</internalNodes>
      <leafValues>
        -2.2432278841733932e-02 5.1675194501876831e-01</leafValues></_>
    <_>
      <internalNodes>
        0 -1 56959 1.2771565467119217e-02</internalNodes>
      <leafValues>
        3.1630881130695343e-02 -4.7196674346923828e-01</leafValues></_>
    <_>
      <internalNodes>
        0 -1 53870 -2.1488154307007790e-03</internalNodes>
      <leafValues>
        -5.8161693811416626e-01 2.4711888283491135e-02</leafValues></_>
    <_>
      <internalNodes>
        0 -1 18018 1.1368048191070557e-01</internalNodes>
      <leafValues>
        -2.7276560664176941e-02 5.0109195709228516e-01</leafValues></_>
    <_>
      <internalNodes>
        0 -1 1628 3.2824821770191193e-02</internalNodes>
      <leafValues>
        4.7929141670465469e-02 -2.8204217553138733e-01</leafValues></_>
    <_>
      <internalNodes>
        0 -1 57391 1.7902019899338484e-03</internalNodes>
      <leafValues>
        -7.0679992437362671e-02 1.8317779898643494e-01</leafValues></_>
    <_>
      <internalNodes>
        0 -1 53244 1.2641260400414467e-03</internalNodes>
      <leafValues>
        -7.9642817378044128e-02 1.6316585242748260e-01</leafValues></_>
    <_>
      <internalNodes>
        0 -1 53244 -1.2015958782285452e-03</internalNodes>
      <leafValues>
        2.1452464163303375e-01 -8.8345445692539215e-02</leafValues></_>
    <_>
      <internalNodes>
        0 -1 38698 5.1018279918935150e-05</internalNodes>
      <leafValues>
        -1.5446077287197113e-01 1.0563078522682190e-01</leafValues></_>
    <_>
      <internalNodes>
        0 -1 44067 1.9967283587902784e-03</internalNodes>
      <leafValues>
        4.4966079294681549e-02 -3.8665521144866943e-01</leafValues></_>
    <_>
      <internalNodes>
        0 -1 38697 1.0186423314735293e-03</internalNodes>
      <leafValues>
        5.2828516811132431e-02 -2.4470917880535126e-01</leafValues></_>
    <_>
      <internalNodes>
        0 -1 13427 9.1979920864105225e-02</internalNodes>
      <leafValues>
        -1.9974565133452415e-02 6.7406439781188965e-01</leafValues></_>
    <_>
      <internalNodes>
        0 -1 30432 1.5770936012268066e-01</internalNodes>
      <leafValues>
        2.3260315880179405e-02 -6.0166621208190918e-01</leafValues></_>
    <_>
      <internalNodes>
        0 -1 49043 2.4494562298059464e-02</internalNodes>
      <leafValues>
        1.5156814828515053e-02 -6.9408750534057617e-01</leafValues></_>
    <_>
      <internalNodes>
        0 -1 64103 -1.2131482362747192e-03</internalNodes>
      <leafValues>
        1.4658702909946442e-01 -8.2668781280517578e-02</leafValues></_>
    <_>
      <internalNodes>
        0 -1 43419 1.4195629628375173e-03</internalNodes>
      <leafValues>
        -1.8224720656871796e-01 7.8148052096366882e-02</leafValues></_>
    <_>
      <internalNodes>
        0 -1 64336 1.2410944327712059e-03</internalNodes>
      <leafValues>
        5.1983639597892761e-02 -2.2681231796741486e-01</leafValues></_>
    <_>
      <internalNodes>
        0 -1 57637 -6.0911867767572403e-03</internalNodes>
      <leafValues>
        2.3614594340324402e-01 -6.3638634979724884e-02</leafValues></_>
    <_>
      <internalNodes>
        0 -1 44066 7.5236847624182701e-04</internalNodes>
      <leafValues>
        5.4198283702135086e-02 -2.5586339831352234e-01</leafValues></_>
    <_>
      <internalNodes>
        0 -1 68230 -9.7815599292516708e-04</internalNodes>
      <leafValues>
        1.9434994459152222e-01 -6.4446955919265747e-02</leafValues></_>
    <_>
      <internalNodes>
        0 -1 64545 -1.1015719792339951e-04</internalNodes>
      <leafValues>
        4.9044787883758545e-02 -2.5905829668045044e-01</leafValues></_>
    <_>
      <internalNodes>
        0 -1 59772 -2.5574691593647003e-02</internalNodes>
      <leafValues>
        2.8381213545799255e-01 -4.3569456785917282e-02</leafValues></_>
    <_>
      <internalNodes>
        0 -1 60743 3.4864591434597969e-03</internalNodes>
      <leafValues>
        -8.9922659099102020e-02 1.4881485700607300e-01</leafValues></_>
    <_>
      <internalNodes>
        0 -1 67134 9.7397454082965851e-03</internalNodes>
      <leafValues>
        -3.9457127451896667e-02 2.8523463010787964e-01</leafValues></_>
    <_>
      <internalNodes>
        0 -1 63863 -2.9696867568418384e-04</internalNodes>
      <leafValues>
        1.0993013530969620e-01 -9.8217904567718506e-02</leafValues></_>
    <_>
      <internalNodes>
        0 -1 56692 -9.2610279098153114e-03</internalNodes>
      <leafValues>
        -2.7214628458023071e-01 4.1150566190481186e-02</leafValues></_>
    <_>
      <internalNodes>
        0 -1 73223 -2.2902733180671930e-03</internalNodes>
      <leafValues>
        -1.5467657148838043e-01 7.4798889458179474e-02</leafValues></_>
    <_>
      <internalNodes>
        0 -1 61363 -2.8966050595045090e-02</internalNodes>
      <leafValues>
        3.6671137809753418e-01 -3.1784426420927048e-02</leafValues></_>
    <_>
      <internalNodes>
        0 -1 50869 1.3003067579120398e-03</internalNodes>
      <leafValues>
        -8.8384479284286499e-02 1.2585292756557465e-01</leafValues></_>
    <_>
      <internalNodes>
        0 -1 56152 4.7810478135943413e-03</internalNodes>
      <leafValues>
        -5.1446303725242615e-02 2.1750119328498840e-01</leafValues></_>
    <_>
      <internalNodes>
        0 -1 38962 4.2753701563924551e-04</internalNodes>
      <leafValues>
        -7.7549919486045837e-02 1.3877803087234497e-01</leafValues></_>
    <_>
      <internalNodes>
        0 -1 38338 5.4869456216692924e-03</internalNodes>
      <leafValues>
        -1.0517856478691101e-01 1.2313821911811829e-01</leafValues></_>
    <_>
      <internalNodes>
        0 -1 56706 -6.2123415991663933e-03</internalNodes>
      <leafValues>
        -2.1887673437595367e-01 6.1367459595203400e-02</leafValues></_>
    <_>
      <internalNodes>
        0 -1 20662 4.9971718341112137e-02</internalNodes>
      <leafValues>
        -2.4224974215030670e-02 4.8132684826850891e-01</leafValues></_>
    <_>
      <internalNodes>
        0 -1 77298 -8.5882405983284116e-04</internalNodes>
      <leafValues>
        1.6037642955780029e-01 -6.7819744348526001e-02</leafValues></_>
    <_>
      <internalNodes>
        0 -1 49070 1.0606776922941208e-02</internalNodes>
      <leafValues>
        1.8115101382136345e-02 -6.0076761245727539e-01</leafValues></_>
    <_>
      <internalNodes>
        0 -1 52747 -4.4285066425800323e-02</internalNodes>
      <leafValues>
        5.4685533046722412e-01 -2.1162951365113258e-02</leafValues></_>
    <_>
      <internalNodes>
        0 -1 43609 -9.7203371115028858e-04</internalNodes>
      <leafValues>
        9.3564368784427643e-02 -1.3757744431495667e-01</leafValues></_>
    <_>
      <internalNodes>
        0 -1 57389 7.1368523640558124e-04</internalNodes>
      <leafValues>
        -9.4195894896984100e-02 1.8061289191246033e-01</leafValues></_>
    <_>
      <internalNodes>
        0 -1 57155 3.7811265792697668e-03</internalNodes>
      <leafValues>
        2.3136897012591362e-02 -6.1179912090301514e-01</leafValues></_>
    <_>
      <internalNodes>
        0 -1 47603 1.6252415254712105e-02</internalNodes>
      <leafValues>
        1.6795888543128967e-02 -6.1920142173767090e-01</leafValues></_>
    <_>
      <internalNodes>
        0 -1 52046 -3.3436669036746025e-03</internalNodes>
      <leafValues>
        1.5942919254302979e-01 -7.2559095919132233e-02</leafValues></_>
    <_>
      <internalNodes>
        0 -1 52095 4.5395814813673496e-03</internalNodes>
      <leafValues>
        -6.1304029077291489e-02 2.0172801613807678e-01</leafValues></_>
    <_>
      <internalNodes>
        0 -1 64337 -9.0803224593400955e-03</internalNodes>
      <leafValues>
        -5.6480848789215088e-01 2.0318754017353058e-02</leafValues></_>
    <_>
      <internalNodes>
        0 -1 65088 3.4037497825920582e-03</internalNodes>
      <leafValues>
        -5.7245705276727676e-02 2.0501247048377991e-01</leafValues></_>
    <_>
      <internalNodes>
        0 -1 70569 -9.8987878300249577e-04</internalNodes>
      <leafValues>
        1.4517833292484283e-01 -8.7593838572502136e-02</leafValues></_>
    <_>
      <internalNodes>
        0 -1 53670 -4.1309138759970665e-03</internalNodes>
      <leafValues>
        -7.4997377395629883e-01 1.4929688535630703e-02</leafValues></_>
    <_>
      <internalNodes>
        0 -1 61070 1.6273701563477516e-02</internalNodes>
      <leafValues>
        1.1521471664309502e-02 -7.2970163822174072e-01</leafValues></_>
    <_>
      <internalNodes>
        0 -1 76754 3.1367602059617639e-04</internalNodes>
      <leafValues>
        6.6928505897521973e-02 -1.5528689324855804e-01</leafValues></_>
    <_>
      <internalNodes>
        0 -1 62739 -6.6358209587633610e-03</internalNodes>
      <leafValues>
        4.3472594022750854e-01 -2.5970393791794777e-02</leafValues></_>
    <_>
      <internalNodes>
        0 -1 20005 3.8275732658803463e-03</internalNodes>
      <leafValues>
        -6.4281664788722992e-02 1.6632756590843201e-01</leafValues></_>
    <_>
      <internalNodes>
        0 -1 13646 -6.3720890320837498e-03</internalNodes>
      <leafValues>
        1.5589921176433563e-01 -7.7162556350231171e-02</leafValues></_>
    <_>
      <internalNodes>
        0 -1 26159 -7.3501914739608765e-03</internalNodes>
      <leafValues>
        -3.0373609066009521e-01 4.7531690448522568e-02</leafValues></_>
    <_>
      <internalNodes>
        0 -1 25781 -2.1959069999866188e-04</internalNodes>
      <leafValues>
        1.0307113826274872e-01 -1.0826246440410614e-01</leafValues></_>
    <_>
      <internalNodes>
        0 -1 44659 -4.3781448039226234e-04</internalNodes>
      <leafValues>
        -1.5566121041774750e-01 7.0695407688617706e-02</leafValues></_>
    <_>
      <internalNodes>
        0 -1 3870 3.8331019459292293e-04</internalNodes>
      <leafValues>
        6.7472644150257111e-02 -1.4534763991832733e-01</leafValues></_>
    <_>
      <internalNodes>
        0 -1 57787 -5.4320564959198236e-04</internalNodes>
      <leafValues>
        1.3134224712848663e-01 -7.7764511108398438e-02</leafValues></_>
    <_>
      <internalNodes>
        0 -1 47928 -2.1773326443508267e-04</internalNodes>
      <leafValues>
        -2.1774733066558838e-01 5.8994531631469727e-02</leafValues></_>
    <_>
      <internalNodes>
        0 -1 61443 -4.6957557788118720e-04</internalNodes>
      <leafValues>
        1.7027474939823151e-01 -7.8872025012969971e-02</leafValues></_>
    <_>
      <internalNodes>
        0 -1 57626 1.0302253067493439e-03</internalNodes>
      <leafValues>
        -9.5872387290000916e-02 1.4034107327461243e-01</leafValues></_>
    <_>
      <internalNodes>
        0 -1 47926 -4.1813854477368295e-04</internalNodes>
      <leafValues>
        1.2585820257663727e-01 -9.4785049557685852e-02</leafValues></_>
    <_>
      <internalNodes>
        0 -1 48692 -3.9523273706436157e-02</internalNodes>
      <leafValues>
        -6.0381942987442017e-01 2.0604541525244713e-02</leafValues></_>
    <_>
      <internalNodes>
        0 -1 52666 3.3684342633932829e-03</internalNodes>
      <leafValues>
        -5.5992942303419113e-02 1.9313760101795197e-01</leafValues></_>
    <_>
      <internalNodes>
        0 -1 57429 5.1343208178877831e-03</internalNodes>
      <leafValues>
        -5.7213462889194489e-02 2.3188893496990204e-01</leafValues></_>
    <_>
      <internalNodes>
        0 -1 38210 2.9231412336230278e-03</internalNodes>
      <leafValues>
        -1.8036113679409027e-01 9.6106551587581635e-02</leafValues></_>
    <_>
      <internalNodes>
        0 -1 44100 1.1406358331441879e-02</internalNodes>
      <leafValues>
        2.8432209044694901e-02 -4.6035203337669373e-01</leafValues></_>
    <_>
      <internalNodes>
        0 -1 53447 -2.1737688803113997e-04</internalNodes>
      <leafValues>
        8.5106998682022095e-02 -1.4658637344837189e-01</leafValues></_>
    <_>
      <internalNodes>
        0 -1 53892 4.3763744179159403e-04</internalNodes>
      <leafValues>
        -9.9850088357925415e-02 1.6999486088752747e-01</leafValues></_>
    <_>
      <internalNodes>
        0 -1 38964 -1.5951509703882039e-04</internalNodes>
      <leafValues>
        -1.3772670924663544e-01 9.7156316041946411e-02</leafValues></_>
    <_>
      <internalNodes>
        0 -1 60629 -1.4752009883522987e-02</internalNodes>
      <leafValues>
        -1.8103861808776855e-01 6.2868498265743256e-02</leafValues></_>
    <_>
      <internalNodes>
        0 -1 4939 1.6160812228918076e-02</internalNodes>
      <leafValues>
        -5.7343404740095139e-02 2.1215070784091949e-01</leafValues></_>
    <_>
      <internalNodes>
        0 -1 2813 -5.8793380856513977e-02</internalNodes>
      <leafValues>
        -4.1007480025291443e-01 2.8740715235471725e-02</leafValues></_>
    <_>
      <internalNodes>
        0 -1 38632 1.4303893782198429e-02</internalNodes>
      <leafValues>
        2.1051103249192238e-02 -4.8523125052452087e-01</leafValues></_>
    <_>
      <internalNodes>
        0 -1 47897 2.5966155529022217e-01</internalNodes>
      <leafValues>
        2.0831027999520302e-02 -4.9081170558929443e-01</leafValues></_>
    <_>
      <internalNodes>
        0 -1 74452 -4.5962668955326080e-03</internalNodes>
      <leafValues>
        1.6712769865989685e-01 -6.4705885946750641e-02</leafValues></_>
    <_>
      <internalNodes>
        0 -1 67494 -1.4019564259797335e-03</internalNodes>
      <leafValues>
        1.3511598110198975e-01 -9.2259980738162994e-02</leafValues></_>
    <_>
      <internalNodes>
        0 -1 57812 7.4271289631724358e-03</internalNodes>
      <leafValues>
        1.6433889046311378e-02 -7.0097208023071289e-01</leafValues></_>
    <_>
      <internalNodes>
        0 -1 78382 -4.5676985755562782e-03</internalNodes>
      <leafValues>
        -4.2122697830200195e-01 2.2644959390163422e-02</leafValues></_>
    <_>
      <internalNodes>
        0 -1 70144 9.6245540771633387e-04</internalNodes>
      <leafValues>
        -6.2168903648853302e-02 1.7795819044113159e-01</leafValues></_>
    <_>
      <internalNodes>
        0 -1 57788 -1.7861248925328255e-03</internalNodes>
      <leafValues>
        -1.9068883359432220e-01 5.9425652027130127e-02</leafValues></_>
    <_>
      <internalNodes>
        0 -1 43878 -1.3892613351345062e-02</internalNodes>
      <leafValues>
        3.0388998985290527e-01 -4.7212906181812286e-02</leafValues></_>
    <_>
      <internalNodes>
        0 -1 17449 1.5253579616546631e-01</internalNodes>
      <leafValues>
        2.3018693551421165e-02 -5.0182712078094482e-01</leafValues></_>
    <_>
      <internalNodes>
        0 -1 60829 3.8384378422051668e-04</internalNodes>
      <leafValues>
        5.4661367088556290e-02 -2.0064680278301239e-01</leafValues></_>
    <_>
      <internalNodes>
        0 -1 57035 1.1828470975160599e-02</internalNodes>
      <leafValues>
        -3.3061884343624115e-02 4.0382188558578491e-01</leafValues></_>
    <_>
      <internalNodes>
        0 -1 57543 2.9832490254193544e-03</internalNodes>
      <leafValues>
        -6.9252267479896545e-02 1.5555469691753387e-01</leafValues></_>
    <_>
      <internalNodes>
        0 -1 76053 -2.5098449550569057e-03</internalNodes>
      <leafValues>
        -1.4551468193531036e-01 8.0644883215427399e-02</leafValues></_>
    <_>
      <internalNodes>
        0 -1 78369 7.4161950033158064e-04</internalNodes>
      <leafValues>
        5.7803481817245483e-02 -1.7614427208900452e-01</leafValues></_>
    <_>
      <internalNodes>
        0 -1 17629 -1.2624388933181763e-01</internalNodes>
      <leafValues>
        -4.8585247993469238e-01 2.4055680260062218e-02</leafValues></_></weakClassifiers></stage19>
</opencv_storage>
