<?xml version="1.0"?>
<opencv_storage>
<stage0>
  <maxWeakCount>15</maxWeakCount>
  <stageThreshold>-1.0778883695602417e+00</stageThreshold>
  <weakClassifiers>
    <_>
      <internalNodes>
        0 -1 48851 -4.0020528249442577e-03</internalNodes>
      <leafValues>
        6.7108297348022461e-01 -2.7489626407623291e-01</leafValues></_>
    <_>
      <internalNodes>
        0 -1 64545 -4.1726551717147231e-04</internalNodes>
      <leafValues>
        3.9784353971481323e-01 -4.7994109988212585e-01</leafValues></_>
    <_>
      <internalNodes>
        0 -1 52377 1.1191767407581210e-03</internalNodes>
      <leafValues>
        -2.5475227832794189e-01 4.3862083554267883e-01</leafValues></_>
    <_>
      <internalNodes>
        0 -1 64368 1.1034081690013409e-03</internalNodes>
      <leafValues>
        -2.7311736345291138e-01 4.1632065176963806e-01</leafValues></_>
    <_>
      <internalNodes>
        0 -1 48296 -2.3328198585659266e-03</internalNodes>
      <leafValues>
        3.5118737816810608e-01 -3.6702930927276611e-01</leafValues></_>
    <_>
      <internalNodes>
        0 -1 61067 2.1380055695772171e-03</internalNodes>
      <leafValues>
        1.9486655294895172e-01 -5.9241706132888794e-01</leafValues></_>
    <_>
      <internalNodes>
        0 -1 57784 2.0781303464900702e-04</internalNodes>
      <leafValues>
        -2.6316750049591064e-01 3.3244842290878296e-01</leafValues></_>
    <_>
      <internalNodes>
        0 -1 60837 -2.1824259310960770e-03</internalNodes>
      <leafValues>
        -5.1588457822799683e-01 1.3435608148574829e-01</leafValues></_>
    <_>
      <internalNodes>
        0 -1 42946 -1.7030208837240934e-03</internalNodes>
      <leafValues>
        4.2316418886184692e-01 -1.8756005167961121e-01</leafValues></_>
    <_>
      <internalNodes>
        0 -1 56917 8.4212068468332291e-03</internalNodes>
      <leafValues>
        5.5392276495695114e-02 -8.9181786775588989e-01</leafValues></_>
    <_>
      <internalNodes>
        0 -1 65093 7.2999820113182068e-03</internalNodes>
      <leafValues>
        -1.5968778729438782e-01 5.0067073106765747e-01</leafValues></_>
    <_>
      <internalNodes>
        0 -1 65065 -3.1876524444669485e-03</internalNodes>
      <leafValues>
        4.4558307528495789e-01 -1.4200566709041595e-01</leafValues></_>
    <_>
      <internalNodes>
        0 -1 44066 1.7416616901755333e-03</internalNodes>
      <leafValues>
        8.1576243042945862e-02 -7.5453305244445801e-01</leafValues></_>
    <_>
      <internalNodes>
        0 -1 63707 -3.2594094518572092e-03</internalNodes>
      <leafValues>
        3.9155629277229309e-01 -1.6164717078208923e-01</leafValues></_>
    <_>
      <internalNodes>
        0 -1 69600 1.0629113530740142e-03</internalNodes>
      <leafValues>
        -1.8536138534545898e-01 3.8491165637969971e-01</leafValues></_></weakClassifiers></stage0>
</opencv_storage>
