<?xml version="1.0"?>
<opencv_storage>
<stage13>
  <maxWeakCount>100</maxWeakCount>
  <stageThreshold>-7.2263234853744507e-01</stageThreshold>
  <weakClassifiers>
    <_>
      <internalNodes>
        0 -1 53702 -4.2120984289795160e-04</internalNodes>
      <leafValues>
        4.5217633247375488e-01 9.4255439937114716e-02</leafValues></_>
    <_>
      <internalNodes>
        0 -1 63860 2.2671106271445751e-03</internalNodes>
      <leafValues>
        -6.9357372820377350e-02 3.4243544936180115e-01</leafValues></_>
    <_>
      <internalNodes>
        0 -1 57202 -2.8962134383618832e-03</internalNodes>
      <leafValues>
        -3.0552870035171509e-01 9.9880434572696686e-02</leafValues></_>
    <_>
      <internalNodes>
        0 -1 64728 -4.7297601122409105e-04</internalNodes>
      <leafValues>
        -1.2417215108871460e-01 1.5073879063129425e-01</leafValues></_>
    <_>
      <internalNodes>
        0 -1 57401 2.1889412309974432e-03</internalNodes>
      <leafValues>
        -1.5800036489963531e-01 1.4052653312683105e-01</leafValues></_>
    <_>
      <internalNodes>
        0 -1 48985 -1.6172234900295734e-03</internalNodes>
      <leafValues>
        -4.2379885911941528e-01 4.3482825160026550e-02</leafValues></_>
    <_>
      <internalNodes>
        0 -1 53212 -6.2034314032644033e-04</internalNodes>
      <leafValues>
        7.1539968252182007e-02 -2.6362895965576172e-01</leafValues></_>
    <_>
      <internalNodes>
        0 -1 43914 1.1045899242162704e-02</internalNodes>
      <leafValues>
        -8.5883378982543945e-02 2.5576889514923096e-01</leafValues></_>
    <_>
      <internalNodes>
        0 -1 67037 -9.9758640863001347e-04</internalNodes>
      <leafValues>
        1.8636177480220795e-01 -1.3146263360977173e-01</leafValues></_>
    <_>
      <internalNodes>
        0 -1 64114 6.1116479337215424e-03</internalNodes>
      <leafValues>
        4.6765401959419250e-02 -6.4266383647918701e-01</leafValues></_>
    <_>
      <internalNodes>
        0 -1 64149 -3.4236095380038023e-03</internalNodes>
      <leafValues>
        2.0210599899291992e-01 -1.0736064612865448e-01</leafValues></_>
    <_>
      <internalNodes>
        0 -1 49011 5.4535558447241783e-03</internalNodes>
      <leafValues>
        5.8426644653081894e-02 -3.6298200488090515e-01</leafValues></_>
    <_>
      <internalNodes>
        0 -1 37579 -9.4444137066602707e-03</internalNodes>
      <leafValues>
        3.2027390599250793e-01 -5.9249777346849442e-02</leafValues></_>
    <_>
      <internalNodes>
        0 -1 52973 -2.1958067081868649e-03</internalNodes>
      <leafValues>
        3.0401077866554260e-01 -6.1855729669332504e-02</leafValues></_>
    <_>
      <internalNodes>
        0 -1 5314 8.4431357681751251e-03</internalNodes>
      <leafValues>
        -3.2983884215354919e-02 4.1004368662834167e-01</leafValues></_>
    <_>
      <internalNodes>
        0 -1 64734 1.2742611579596996e-03</internalNodes>
      <leafValues>
        3.1993679702281952e-02 -4.9775627255439758e-01</leafValues></_>
    <_>
      <internalNodes>
        0 -1 52652 4.3624900281429291e-03</internalNodes>
      <leafValues>
        6.5965466201305389e-02 -2.3862281441688538e-01</leafValues></_>
    <_>
      <internalNodes>
        0 -1 57394 -3.2835116144269705e-03</internalNodes>
      <leafValues>
        3.8741764426231384e-01 -3.6085080355405807e-02</leafValues></_>
    <_>
      <internalNodes>
        0 -1 56926 2.2393122781068087e-03</internalNodes>
      <leafValues>
        -1.2296044081449509e-01 1.2602902948856354e-01</leafValues></_>
    <_>
      <internalNodes>
        0 -1 57154 -1.5171521808952093e-03</internalNodes>
      <leafValues>
        -4.0968126058578491e-01 3.2565101981163025e-02</leafValues></_>
    <_>
      <internalNodes>
        0 -1 57623 2.5652679614722729e-03</internalNodes>
      <leafValues>
        -6.5793693065643311e-02 2.3565649986267090e-01</leafValues></_>
    <_>
      <internalNodes>
        0 -1 53211 -5.4069110774435103e-05</internalNodes>
      <leafValues>
        1.0021645575761795e-01 -1.9153791666030884e-01</leafValues></_>
    <_>
      <internalNodes>
        0 -1 49369 2.1940413862466812e-03</internalNodes>
      <leafValues>
        2.2831143811345100e-02 -5.2426874637603760e-01</leafValues></_>
    <_>
      <internalNodes>
        0 -1 61956 -2.2127609699964523e-03</internalNodes>
      <leafValues>
        1.6480018198490143e-01 -8.4920331835746765e-02</leafValues></_>
    <_>
      <internalNodes>
        0 -1 68106 3.8008715491741896e-03</internalNodes>
      <leafValues>
        -6.7784652113914490e-02 2.2743631899356842e-01</leafValues></_>
    <_>
      <internalNodes>
        0 -1 60656 -6.4535662531852722e-02</internalNodes>
      <leafValues>
        2.6110365986824036e-01 -5.5866789072751999e-02</leafValues></_>
    <_>
      <internalNodes>
        0 -1 57842 2.5551961734890938e-03</internalNodes>
      <leafValues>
        2.3222809657454491e-02 -5.9684711694717407e-01</leafValues></_>
    <_>
      <internalNodes>
        0 -1 49372 -2.0227362401783466e-03</internalNodes>
      <leafValues>
        -2.8584736585617065e-01 4.4952187687158585e-02</leafValues></_>
    <_>
      <internalNodes>
        0 -1 13620 -1.0647440794855356e-03</internalNodes>
      <leafValues>
        1.6077962517738342e-01 -8.7310038506984711e-02</leafValues></_>
    <_>
      <internalNodes>
        0 -1 20627 -1.8557573202997446e-03</internalNodes>
      <leafValues>
        2.0068989694118500e-01 -7.3958508670330048e-02</leafValues></_>
    <_>
      <internalNodes>
        0 -1 5332 -5.3146434947848320e-03</internalNodes>
      <leafValues>
        2.0486703515052795e-01 -6.5055638551712036e-02</leafValues></_>
    <_>
      <internalNodes>
        0 -1 38145 -4.9495126586407423e-04</internalNodes>
      <leafValues>
        -1.9049899280071259e-01 6.6441342234611511e-02</leafValues></_>
    <_>
      <internalNodes>
        0 -1 72819 8.0920249456539750e-04</internalNodes>
      <leafValues>
        -8.6249843239784241e-02 1.5051551163196564e-01</leafValues></_>
    <_>
      <internalNodes>
        0 -1 42661 -8.4094278514385223e-02</internalNodes>
      <leafValues>
        7.8401154279708862e-01 -1.6031840816140175e-02</leafValues></_>
    <_>
      <internalNodes>
        0 -1 43810 1.9580936059355736e-03</internalNodes>
      <leafValues>
        4.0603071451187134e-02 -3.8189911842346191e-01</leafValues></_>
    <_>
      <internalNodes>
        0 -1 27338 1.5166631201282144e-03</internalNodes>
      <leafValues>
        -9.0534053742885590e-02 1.5034949779510498e-01</leafValues></_>
    <_>
      <internalNodes>
        0 -1 49544 -2.0412844605743885e-03</internalNodes>
      <leafValues>
        2.2362422943115234e-01 -5.5004689842462540e-02</leafValues></_>
    <_>
      <internalNodes>
        0 -1 65067 -1.3257421087473631e-03</internalNodes>
      <leafValues>
        1.1416789144277573e-01 -1.1762136220932007e-01</leafValues></_>
    <_>
      <internalNodes>
        0 -1 64112 -1.0691728442907333e-02</internalNodes>
      <leafValues>
        -7.3166561126708984e-01 1.5947191044688225e-02</leafValues></_>
    <_>
      <internalNodes>
        0 -1 51997 -8.7642425205558538e-04</internalNodes>
      <leafValues>
        1.2387076020240784e-01 -9.7265124320983887e-02</leafValues></_>
    <_>
      <internalNodes>
        0 -1 52336 -3.1794200185686350e-04</internalNodes>
      <leafValues>
        1.7662563920021057e-01 -8.3270639181137085e-02</leafValues></_>
    <_>
      <internalNodes>
        0 -1 43843 1.8329323211219162e-05</internalNodes>
      <leafValues>
        -1.5513160824775696e-01 1.0131000727415085e-01</leafValues></_>
    <_>
      <internalNodes>
        0 -1 52476 -7.2101829573512077e-03</internalNodes>
      <leafValues>
        -4.3276771903038025e-01 3.6277316510677338e-02</leafValues></_>
    <_>
      <internalNodes>
        0 -1 44152 -1.2030585203319788e-03</internalNodes>
      <leafValues>
        -1.0978923738002777e-01 1.4100359380245209e-01</leafValues></_>
    <_>
      <internalNodes>
        0 -1 61259 4.8908567987382412e-04</internalNodes>
      <leafValues>
        1.2339743226766586e-01 -1.2098956853151321e-01</leafValues></_>
    <_>
      <internalNodes>
        0 -1 32718 1.5900297090411186e-02</internalNodes>
      <leafValues>
        9.1897428035736084e-02 -1.8880991637706757e-01</leafValues></_>
    <_>
      <internalNodes>
        0 -1 32382 -1.9718729890882969e-03</internalNodes>
      <leafValues>
        -1.5685296058654785e-01 9.3477681279182434e-02</leafValues></_>
    <_>
      <internalNodes>
        0 -1 48507 -2.1979017765261233e-04</internalNodes>
      <leafValues>
        9.8841540515422821e-02 -1.3990850746631622e-01</leafValues></_>
    <_>
      <internalNodes>
        0 -1 64902 -3.0327821150422096e-04</internalNodes>
      <leafValues>
        8.0956459045410156e-02 -1.8539944291114807e-01</leafValues></_>
    <_>
      <internalNodes>
        0 -1 37471 1.5106298960745335e-03</internalNodes>
      <leafValues>
        8.4607891738414764e-02 -1.5751802921295166e-01</leafValues></_>
    <_>
      <internalNodes>
        0 -1 52380 1.9152513705193996e-03</internalNodes>
      <leafValues>
        -6.9080047309398651e-02 1.8484082818031311e-01</leafValues></_>
    <_>
      <internalNodes>
        0 -1 44095 2.0692911930382252e-03</internalNodes>
      <leafValues>
        -8.8389866054058075e-02 1.7389826476573944e-01</leafValues></_>
    <_>
      <internalNodes>
        0 -1 53244 2.9540234245359898e-03</internalNodes>
      <leafValues>
        -5.1492828875780106e-02 2.7373659610748291e-01</leafValues></_>
    <_>
      <internalNodes>
        0 -1 53019 -1.9580826628953218e-03</internalNodes>
      <leafValues>
        -1.6749721765518188e-01 8.8007301092147827e-02</leafValues></_>
    <_>
      <internalNodes>
        0 -1 43613 -1.2637034524232149e-03</internalNodes>
      <leafValues>
        1.5590457618236542e-01 -1.0094142705202103e-01</leafValues></_>
    <_>
      <internalNodes>
        0 -1 61283 -1.7835951875895262e-03</internalNodes>
      <leafValues>
        -2.3784625530242920e-01 7.5985319912433624e-02</leafValues></_>
    <_>
      <internalNodes>
        0 -1 18919 -1.1885205283761024e-02</internalNodes>
      <leafValues>
        2.2574540972709656e-01 -7.1645528078079224e-02</leafValues></_>
    <_>
      <internalNodes>
        0 -1 52102 -2.6404727250337601e-02</internalNodes>
      <leafValues>
        -3.8582140207290649e-01 3.7241939455270767e-02</leafValues></_>
    <_>
      <internalNodes>
        0 -1 67535 -3.6043485160917044e-03</internalNodes>
      <leafValues>
        1.9150494039058685e-01 -7.5534246861934662e-02</leafValues></_>
    <_>
      <internalNodes>
        0 -1 70333 -3.7157098995521665e-04</internalNodes>
      <leafValues>
        -1.3391163945198059e-01 1.1040329933166504e-01</leafValues></_>
    <_>
      <internalNodes>
        0 -1 64379 -3.6416459828615189e-02</internalNodes>
      <leafValues>
        -5.7392919063568115e-01 2.6614645496010780e-02</leafValues></_>
    <_>
      <internalNodes>
        0 -1 52044 7.0624174550175667e-03</internalNodes>
      <leafValues>
        -4.2568344622850418e-02 3.6584594845771790e-01</leafValues></_>
    <_>
      <internalNodes>
        0 -1 24596 -2.4677589535713196e-03</internalNodes>
      <leafValues>
        -2.0937474071979523e-01 6.3668578863143921e-02</leafValues></_>
    <_>
      <internalNodes>
        0 -1 72222 1.2979200109839439e-02</internalNodes>
      <leafValues>
        2.9260454699397087e-02 -4.4695115089416504e-01</leafValues></_>
    <_>
      <internalNodes>
        0 -1 36393 2.5198332965373993e-02</internalNodes>
      <leafValues>
        -6.5397642552852631e-02 2.0038112998008728e-01</leafValues></_>
    <_>
      <internalNodes>
        0 -1 43305 -1.3422062620520592e-03</internalNodes>
      <leafValues>
        1.1620695888996124e-01 -1.2332615256309509e-01</leafValues></_>
    <_>
      <internalNodes>
        0 -1 52659 -8.3556713070720434e-04</internalNodes>
      <leafValues>
        -1.4495353400707245e-01 1.2067562341690063e-01</leafValues></_>
    <_>
      <internalNodes>
        0 -1 57155 3.5655328538268805e-03</internalNodes>
      <leafValues>
        2.3830782622098923e-02 -5.9416270256042480e-01</leafValues></_>
    <_>
      <internalNodes>
        0 -1 57162 1.5885264147073030e-03</internalNodes>
      <leafValues>
        5.2798174321651459e-02 -2.6025959849357605e-01</leafValues></_>
    <_>
      <internalNodes>
        0 -1 57392 -1.2836684472858906e-03</internalNodes>
      <leafValues>
        2.3219272494316101e-01 -6.2838032841682434e-02</leafValues></_>
    <_>
      <internalNodes>
        0 -1 18834 -7.0492285303771496e-03</internalNodes>
      <leafValues>
        2.3010180890560150e-01 -5.6373171508312225e-02</leafValues></_>
    <_>
      <internalNodes>
        0 -1 53671 3.0709556303918362e-03</internalNodes>
      <leafValues>
        2.6707595214247704e-02 -4.9395316839218140e-01</leafValues></_>
    <_>
      <internalNodes>
        0 -1 73974 8.7559968233108521e-02</internalNodes>
      <leafValues>
        3.7591207772493362e-02 -3.4474265575408936e-01</leafValues></_>
    <_>
      <internalNodes>
        0 -1 52939 -3.7841216544620693e-04</internalNodes>
      <leafValues>
        -1.4320838451385498e-01 8.9251339435577393e-02</leafValues></_>
    <_>
      <internalNodes>
        0 -1 47660 -9.3625430017709732e-03</internalNodes>
      <leafValues>
        2.0794297754764557e-01 -8.2564398646354675e-02</leafValues></_>
    <_>
      <internalNodes>
        0 -1 56456 2.4432959035038948e-03</internalNodes>
      <leafValues>
        -7.2235390543937683e-02 1.9214497506618500e-01</leafValues></_>
    <_>
      <internalNodes>
        0 -1 72263 -2.5831330567598343e-03</internalNodes>
      <leafValues>
        1.6531099379062653e-01 -7.6433651149272919e-02</leafValues></_>
    <_>
      <internalNodes>
        0 -1 38962 2.1412543719634414e-04</internalNodes>
      <leafValues>
        -9.1708786785602570e-02 1.3926279544830322e-01</leafValues></_>
    <_>
      <internalNodes>
        0 -1 48785 -1.4075182843953371e-03</internalNodes>
      <leafValues>
        7.5482279062271118e-02 -1.8294578790664673e-01</leafValues></_>
    <_>
      <internalNodes>
        0 -1 53698 2.5175415794365108e-04</internalNodes>
      <leafValues>
        -8.6199119687080383e-02 1.9959463179111481e-01</leafValues></_>
    <_>
      <internalNodes>
        0 -1 8314 -6.3062389381229877e-04</internalNodes>
      <leafValues>
        -2.0264373719692230e-01 6.8306379020214081e-02</leafValues></_>
    <_>
      <internalNodes>
        0 -1 57813 2.5065494701266289e-03</internalNodes>
      <leafValues>
        1.5269655734300613e-02 -7.8303885459899902e-01</leafValues></_>
    <_>
      <internalNodes>
        0 -1 19667 -1.9200696842744946e-03</internalNodes>
      <leafValues>
        1.5930275619029999e-01 -7.7185750007629395e-02</leafValues></_>
    <_>
      <internalNodes>
        0 -1 48985 -2.1658843616023660e-04</internalNodes>
      <leafValues>
        1.0258147120475769e-01 -1.2110187858343124e-01</leafValues></_>
    <_>
      <internalNodes>
        0 -1 44291 1.2904870091006160e-03</internalNodes>
      <leafValues>
        3.3682905137538910e-02 -4.1104203462600708e-01</leafValues></_>
    <_>
      <internalNodes>
        0 -1 24985 -2.3749411106109619e-02</internalNodes>
      <leafValues>
        -6.4772278070449829e-01 1.6521245241165161e-02</leafValues></_>
    <_>
      <internalNodes>
        0 -1 31632 1.9544502720236778e-02</internalNodes>
      <leafValues>
        -3.2148819416761398e-02 4.3992578983306885e-01</leafValues></_>
    <_>
      <internalNodes>
        0 -1 33199 8.7095198978204280e-05</internalNodes>
      <leafValues>
        -1.0630082339048386e-01 1.1993543058633804e-01</leafValues></_>
    <_>
      <internalNodes>
        0 -1 20073 -1.1160107329487801e-02</internalNodes>
      <leafValues>
        1.5544469654560089e-01 -8.7289057672023773e-02</leafValues></_>
    <_>
      <internalNodes>
        0 -1 60535 1.2311944738030434e-04</internalNodes>
      <leafValues>
        7.1659654378890991e-02 -1.7886373400688171e-01</leafValues></_>
    <_>
      <internalNodes>
        0 -1 60480 -8.4990024566650391e-02</internalNodes>
      <leafValues>
        2.2462390363216400e-01 -5.8169879019260406e-02</leafValues></_>
    <_>
      <internalNodes>
        0 -1 64371 4.9417680129408836e-03</internalNodes>
      <leafValues>
        -3.0449580401182175e-02 3.6714112758636475e-01</leafValues></_>
    <_>
      <internalNodes>
        0 -1 56749 -7.8100413084030151e-03</internalNodes>
      <leafValues>
        -1.1658617109060287e-01 1.2299765646457672e-01</leafValues></_>
    <_>
      <internalNodes>
        0 -1 35257 -3.7190678995102644e-04</internalNodes>
      <leafValues>
        -1.5882325172424316e-01 8.2414075732231140e-02</leafValues></_>
    <_>
      <internalNodes>
        0 -1 74517 -4.6413419768214226e-03</internalNodes>
      <leafValues>
        2.5019809603691101e-01 -5.2449189126491547e-02</leafValues></_>
    <_>
      <internalNodes>
        0 -1 61062 -2.4256805772893131e-04</internalNodes>
      <leafValues>
        1.2728151679039001e-01 -9.8732605576515198e-02</leafValues></_>
    <_>
      <internalNodes>
        0 -1 57001 -4.3620532960630953e-04</internalNodes>
      <leafValues>
        -2.8412243723869324e-01 4.5362565666437149e-02</leafValues></_>
    <_>
      <internalNodes>
        0 -1 69400 -1.9467361271381378e-03</internalNodes>
      <leafValues>
        2.1361881494522095e-01 -5.6386128067970276e-02</leafValues></_>
    <_>
      <internalNodes>
        0 -1 63534 4.7191125340759754e-03</internalNodes>
      <leafValues>
        -6.6874407231807709e-02 1.9040438532829285e-01</leafValues></_>
    <_>
      <internalNodes>
        0 -1 54044 1.8759907688945532e-03</internalNodes>
      <leafValues>
        3.5196498036384583e-02 -3.7101560831069946e-01</leafValues></_></weakClassifiers></stage13>
</opencv_storage>
