<?xml version="1.0"?>
<opencv_storage>
<stage21>
  <maxWeakCount>100</maxWeakCount>
  <stageThreshold>-7.8539305925369263e-01</stageThreshold>
  <weakClassifiers>
    <_>
      <internalNodes>
        0 -1 57161 -1.5597112942487001e-03</internalNodes>
      <leafValues>
        -3.5634744912385941e-02 4.0693026781082153e-01</leafValues></_>
    <_>
      <internalNodes>
        0 -1 57114 -1.1279229074716568e-02</internalNodes>
      <leafValues>
        3.5272589325904846e-01 -4.9975909292697906e-02</leafValues></_>
    <_>
      <internalNodes>
        0 -1 47929 -6.4275978365913033e-04</internalNodes>
      <leafValues>
        1.3311190903186798e-01 -1.3919804990291595e-01</leafValues></_>
    <_>
      <internalNodes>
        0 -1 60982 1.8813179340213537e-03</internalNodes>
      <leafValues>
        -1.8124893307685852e-01 8.8204994797706604e-02</leafValues></_>
    <_>
      <internalNodes>
        0 -1 52936 1.3876738375984132e-04</internalNodes>
      <leafValues>
        1.2149466574192047e-01 -2.0268236100673676e-01</leafValues></_>
    <_>
      <internalNodes>
        0 -1 60625 -9.7858463414013386e-04</internalNodes>
      <leafValues>
        7.4878588318824768e-02 -1.6526134312152863e-01</leafValues></_>
    <_>
      <internalNodes>
        0 -1 64412 -2.2379863075911999e-03</internalNodes>
      <leafValues>
        2.1902897953987122e-01 -1.0380454361438751e-01</leafValues></_>
    <_>
      <internalNodes>
        0 -1 60982 -1.3540200889110565e-02</internalNodes>
      <leafValues>
        -4.4670173525810242e-01 4.2397852987051010e-02</leafValues></_>
    <_>
      <internalNodes>
        0 -1 60982 -1.3384848833084106e-02</internalNodes>
      <leafValues>
        4.2437127232551575e-01 -2.2220917046070099e-02</leafValues></_>
    <_>
      <internalNodes>
        0 -1 64200 -3.0558682046830654e-03</internalNodes>
      <leafValues>
        -2.1535888314247131e-01 6.5769754350185394e-02</leafValues></_>
    <_>
      <internalNodes>
        0 -1 51848 5.9430927038192749e-02</internalNodes>
      <leafValues>
        -1.0840703733265400e-02 5.9515064954757690e-01</leafValues></_>
    <_>
      <internalNodes>
        0 -1 58983 2.8614211827516556e-02</internalNodes>
      <leafValues>
        1.1184505186975002e-02 -5.7700353860855103e-01</leafValues></_>
    <_>
      <internalNodes>
        0 -1 48558 1.2462673475965858e-03</internalNodes>
      <leafValues>
        -1.5343627333641052e-01 1.0159920156002045e-01</leafValues></_>
    <_>
      <internalNodes>
        0 -1 20002 2.9610074125230312e-03</internalNodes>
      <leafValues>
        -7.0552416145801544e-02 1.5974327921867371e-01</leafValues></_>
    <_>
      <internalNodes>
        0 -1 53767 4.2913123965263367e-02</internalNodes>
      <leafValues>
        -5.9653073549270630e-02 2.7917227149009705e-01</leafValues></_>
    <_>
      <internalNodes>
        0 -1 49188 1.9167198843206279e-05</internalNodes>
      <leafValues>
        -1.0842350125312805e-01 1.0443448275327682e-01</leafValues></_>
    <_>
      <internalNodes>
        0 -1 44066 5.0884336815215647e-05</internalNodes>
      <leafValues>
        -1.2404821068048477e-01 1.0029137134552002e-01</leafValues></_>
    <_>
      <internalNodes>
        0 -1 48227 -4.4104857370257378e-03</internalNodes>
      <leafValues>
        1.1387616395950317e-01 -1.1075631529092789e-01</leafValues></_>
    <_>
      <internalNodes>
        0 -1 43422 -2.2703610360622406e-02</internalNodes>
      <leafValues>
        -1.3527865707874298e-01 1.3213023543357849e-01</leafValues></_>
    <_>
      <internalNodes>
        0 -1 37799 -1.3274748926050961e-04</internalNodes>
      <leafValues>
        -1.3618467748165131e-01 8.7628297507762909e-02</leafValues></_>
    <_>
      <internalNodes>
        0 -1 57427 1.3028639368712902e-03</internalNodes>
      <leafValues>
        -6.9685474038124084e-02 1.6160352528095245e-01</leafValues></_>
    <_>
      <internalNodes>
        0 -1 43964 1.5037650009617209e-03</internalNodes>
      <leafValues>
        -1.1913006007671356e-01 1.1417920142412186e-01</leafValues></_>
    <_>
      <internalNodes>
        0 -1 57784 2.1845984156243503e-04</internalNodes>
      <leafValues>
        -8.0033525824546814e-02 1.7270371317863464e-01</leafValues></_>
    <_>
      <internalNodes>
        0 -1 61023 2.4230689741671085e-03</internalNodes>
      <leafValues>
        3.9328541606664658e-02 -3.6124256253242493e-01</leafValues></_>
    <_>
      <internalNodes>
        0 -1 43814 1.4355177991092205e-03</internalNodes>
      <leafValues>
        4.7286890447139740e-02 -2.5174051523208618e-01</leafValues></_>
    <_>
      <internalNodes>
        0 -1 20335 -2.3115596268326044e-03</internalNodes>
      <leafValues>
        1.7488501965999603e-01 -6.6429071128368378e-02</leafValues></_>
    <_>
      <internalNodes>
        0 -1 48756 -4.0395560790784657e-04</internalNodes>
      <leafValues>
        1.0205218195915222e-01 -1.1089171469211578e-01</leafValues></_>
    <_>
      <internalNodes>
        0 -1 20153 8.5182026028633118e-02</internalNodes>
      <leafValues>
        -3.2688479870557785e-02 3.9992973208427429e-01</leafValues></_>
    <_>
      <internalNodes>
        0 -1 60543 6.9065601564943790e-03</internalNodes>
      <leafValues>
        1.0018812119960785e-01 -1.3180233538150787e-01</leafValues></_>
    <_>
      <internalNodes>
        0 -1 44093 -1.6683167777955532e-03</internalNodes>
      <leafValues>
        -2.0028273761272430e-01 6.4026914536952972e-02</leafValues></_>
    <_>
      <internalNodes>
        0 -1 47976 -5.1420331001281738e-03</internalNodes>
      <leafValues>
        1.6476848721504211e-01 -6.9891594350337982e-02</leafValues></_>
    <_>
      <internalNodes>
        0 -1 47931 -3.6964286118745804e-03</internalNodes>
      <leafValues>
        1.5678645670413971e-01 -1.0405199974775314e-01</leafValues></_>
    <_>
      <internalNodes>
        0 -1 43547 1.2513140682131052e-03</internalNodes>
      <leafValues>
        -1.1454871296882629e-01 1.1438613384962082e-01</leafValues></_>
    <_>
      <internalNodes>
        0 -1 49393 -5.1286682719364762e-04</internalNodes>
      <leafValues>
        1.2474311888217926e-01 -9.3183249235153198e-02</leafValues></_>
    <_>
      <internalNodes>
        0 -1 32711 1.1539421975612640e-02</internalNodes>
      <leafValues>
        4.7921277582645416e-02 -2.3525670170783997e-01</leafValues></_>
    <_>
      <internalNodes>
        0 -1 26879 2.1484908647835255e-03</internalNodes>
      <leafValues>
        -8.2681111991405487e-02 1.3415537774562836e-01</leafValues></_>
    <_>
      <internalNodes>
        0 -1 53452 -9.0442609507590532e-04</internalNodes>
      <leafValues>
        1.3336759805679321e-01 -1.0969331860542297e-01</leafValues></_>
    <_>
      <internalNodes>
        0 -1 71843 -2.0742840133607388e-03</internalNodes>
      <leafValues>
        2.7316921949386597e-01 -4.0703799575567245e-02</leafValues></_>
    <_>
      <internalNodes>
        0 -1 60536 -5.2013797685503960e-03</internalNodes>
      <leafValues>
        -6.8725162744522095e-01 1.6484774649143219e-02</leafValues></_>
    <_>
      <internalNodes>
        0 -1 61790 -5.8595859445631504e-04</internalNodes>
      <leafValues>
        1.1612931638956070e-01 -8.8483594357967377e-02</leafValues></_>
    <_>
      <internalNodes>
        0 -1 61957 1.8429001793265343e-03</internalNodes>
      <leafValues>
        -8.0603808164596558e-02 1.4323377609252930e-01</leafValues></_>
    <_>
      <internalNodes>
        0 -1 56740 -2.4311654269695282e-02</internalNodes>
      <leafValues>
        -2.8191423416137695e-01 3.6147274076938629e-02</leafValues></_>
    <_>
      <internalNodes>
        0 -1 67086 -3.1662252731621265e-03</internalNodes>
      <leafValues>
        1.4648264646530151e-01 -6.9036878645420074e-02</leafValues></_>
    <_>
      <internalNodes>
        0 -1 38073 -1.3520655222237110e-02</internalNodes>
      <leafValues>
        -5.5039036273956299e-01 2.0009670406579971e-02</leafValues></_>
    <_>
      <internalNodes>
        0 -1 69712 4.3660581111907959e-02</internalNodes>
      <leafValues>
        1.5430994331836700e-02 -5.6955754756927490e-01</leafValues></_>
    <_>
      <internalNodes>
        0 -1 63446 8.3423126488924026e-03</internalNodes>
      <leafValues>
        -5.8078788220882416e-02 1.7280267179012299e-01</leafValues></_>
    <_>
      <internalNodes>
        0 -1 70600 2.4554564151912928e-04</internalNodes>
      <leafValues>
        -1.0397195816040039e-01 1.0481465607881546e-01</leafValues></_>
    <_>
      <internalNodes>
        0 -1 53480 7.4626263231039047e-03</internalNodes>
      <leafValues>
        -5.7783700525760651e-02 1.9859254360198975e-01</leafValues></_>
    <_>
      <internalNodes>
        0 -1 43609 -1.0215612128376961e-03</internalNodes>
      <leafValues>
        1.0019525885581970e-01 -1.5187351405620575e-01</leafValues></_>
    <_>
      <internalNodes>
        0 -1 38753 9.1571232769638300e-04</internalNodes>
      <leafValues>
        -8.8959336280822754e-02 1.2640325725078583e-01</leafValues></_>
    <_>
      <internalNodes>
        0 -1 64371 5.3242365829646587e-03</internalNodes>
      <leafValues>
        -2.8954001143574715e-02 3.6218908429145813e-01</leafValues></_>
    <_>
      <internalNodes>
        0 -1 52979 4.5703072100877762e-03</internalNodes>
      <leafValues>
        4.3650142848491669e-02 -2.7437332272529602e-01</leafValues></_>
    <_>
      <internalNodes>
        0 -1 44097 -1.7023221589624882e-03</internalNodes>
      <leafValues>
        -2.4723371863365173e-01 5.0980083644390106e-02</leafValues></_>
    <_>
      <internalNodes>
        0 -1 67676 -3.6509991623461246e-03</internalNodes>
      <leafValues>
        -1.6329438984394073e-01 7.5690194964408875e-02</leafValues></_>
    <_>
      <internalNodes>
        0 -1 26829 7.6332073658704758e-03</internalNodes>
      <leafValues>
        -7.0382922887802124e-02 1.6571663320064545e-01</leafValues></_>
    <_>
      <internalNodes>
        0 -1 61626 1.4096891973167658e-03</internalNodes>
      <leafValues>
        1.4157542027533054e-02 -7.2573477029800415e-01</leafValues></_>
    <_>
      <internalNodes>
        0 -1 53893 2.6226026238873601e-04</internalNodes>
      <leafValues>
        -6.7056275904178619e-02 1.6899505257606506e-01</leafValues></_>
    <_>
      <internalNodes>
        0 -1 15894 -5.4833069443702698e-03</internalNodes>
      <leafValues>
        1.0079972445964813e-01 -1.2191669642925262e-01</leafValues></_>
    <_>
      <internalNodes>
        0 -1 37451 -1.1693071573972702e-03</internalNodes>
      <leafValues>
        1.7132307589054108e-01 -6.6452369093894958e-02</leafValues></_>
    <_>
      <internalNodes>
        0 -1 25428 -2.5620844680815935e-03</internalNodes>
      <leafValues>
        1.7367587983608246e-01 -7.7407680451869965e-02</leafValues></_>
    <_>
      <internalNodes>
        0 -1 26490 -1.5181947965174913e-03</internalNodes>
      <leafValues>
        -2.2589999437332153e-01 5.3299307823181152e-02</leafValues></_>
    <_>
      <internalNodes>
        0 -1 19704 1.7818951164372265e-04</internalNodes>
      <leafValues>
        1.2895922362804413e-01 -7.9222261905670166e-02</leafValues></_>
    <_>
      <internalNodes>
        0 -1 43293 7.2750002145767212e-03</internalNodes>
      <leafValues>
        6.3361376523971558e-02 -2.1478296816349030e-01</leafValues></_>
    <_>
      <internalNodes>
        0 -1 15856 2.4808683991432190e-01</internalNodes>
      <leafValues>
        -2.8746113181114197e-02 4.1860401630401611e-01</leafValues></_>
    <_>
      <internalNodes>
        0 -1 57953 6.5562024246901274e-04</internalNodes>
      <leafValues>
        4.3004404753446579e-02 -2.6240217685699463e-01</leafValues></_>
    <_>
      <internalNodes>
        0 -1 49520 -4.9000501167029142e-04</internalNodes>
      <leafValues>
        -1.4321570098400116e-01 6.7925401031970978e-02</leafValues></_>
    <_>
      <internalNodes>
        0 -1 27803 6.9669308140873909e-03</internalNodes>
      <leafValues>
        -3.7542764097452164e-02 2.9401457309722900e-01</leafValues></_>
    <_>
      <internalNodes>
        0 -1 76656 1.7702879267744720e-04</internalNodes>
      <leafValues>
        7.4475012719631195e-02 -1.3457547128200531e-01</leafValues></_>
    <_>
      <internalNodes>
        0 -1 48148 -2.9333036392927170e-02</internalNodes>
      <leafValues>
        5.2923971414566040e-01 -1.9233312457799911e-02</leafValues></_>
    <_>
      <internalNodes>
        0 -1 60583 3.2676393166184425e-03</internalNodes>
      <leafValues>
        5.9042297303676605e-02 -1.9320712983608246e-01</leafValues></_>
    <_>
      <internalNodes>
        0 -1 52097 -1.3957094401121140e-02</internalNodes>
      <leafValues>
        -2.4553233385086060e-01 4.1473366320133209e-02</leafValues></_>
    <_>
      <internalNodes>
        0 -1 42327 5.9056535363197327e-02</internalNodes>
      <leafValues>
        -2.8900563716888428e-02 4.2745280265808105e-01</leafValues></_>
    <_>
      <internalNodes>
        0 -1 44095 2.0032301545143127e-03</internalNodes>
      <leafValues>
        -8.6505435407161713e-02 1.4309254288673401e-01</leafValues></_>
    <_>
      <internalNodes>
        0 -1 65088 -4.5388913713395596e-03</internalNodes>
      <leafValues>
        1.6569063067436218e-01 -6.8185843527317047e-02</leafValues></_>
    <_>
      <internalNodes>
        0 -1 65062 -1.0285105090588331e-03</internalNodes>
      <leafValues>
        1.3957966864109039e-01 -8.5081346333026886e-02</leafValues></_>
    <_>
      <internalNodes>
        0 -1 68103 -5.2302218973636627e-03</internalNodes>
      <leafValues>
        -5.0812649726867676e-01 2.3785118013620377e-02</leafValues></_>
    <_>
      <internalNodes>
        0 -1 12773 -9.8461117595434189e-03</internalNodes>
      <leafValues>
        -3.6430504918098450e-01 2.6490518823266029e-02</leafValues></_>
    <_>
      <internalNodes>
        0 -1 47979 -4.6536158770322800e-03</internalNodes>
      <leafValues>
        1.9292172789573669e-01 -5.4748136550188065e-02</leafValues></_>
    <_>
      <internalNodes>
        0 -1 53211 -1.1910146567970514e-03</internalNodes>
      <leafValues>
        -2.1019996702671051e-01 6.4690977334976196e-02</leafValues></_>
    <_>
      <internalNodes>
        0 -1 53478 -1.2098361039534211e-03</internalNodes>
      <leafValues>
        1.7545214295387268e-01 -7.0645712316036224e-02</leafValues></_>
    <_>
      <internalNodes>
        0 -1 33035 -3.1645208597183228e-02</internalNodes>
      <leafValues>
        2.3617769777774811e-01 -4.5458987355232239e-02</leafValues></_>
    <_>
      <internalNodes>
        0 -1 53279 -2.4777268990874290e-03</internalNodes>
      <leafValues>
        1.9771230220794678e-01 -5.8638781309127808e-02</leafValues></_>
    <_>
      <internalNodes>
        0 -1 52938 -1.2586272787302732e-03</internalNodes>
      <leafValues>
        -2.1087037026882172e-01 5.4884266108274460e-02</leafValues></_>
    <_>
      <internalNodes>
        0 -1 53687 -6.1753671616315842e-03</internalNodes>
      <leafValues>
        -3.9148670434951782e-01 2.7282617986202240e-02</leafValues></_>
    <_>
      <internalNodes>
        0 -1 39150 5.8598725445335731e-05</internalNodes>
      <leafValues>
        -9.5349170267581940e-02 1.0553600639104843e-01</leafValues></_>
    <_>
      <internalNodes>
        0 -1 50861 -7.1479715406894684e-03</internalNodes>
      <leafValues>
        3.0861335992813110e-01 -3.2464377582073212e-02</leafValues></_>
    <_>
      <internalNodes>
        0 -1 46923 1.1892134789377451e-03</internalNodes>
      <leafValues>
        7.3757909238338470e-02 -1.5258687734603882e-01</leafValues></_>
    <_>
      <internalNodes>
        0 -1 63599 -7.0721295196563005e-04</internalNodes>
      <leafValues>
        1.3980662822723389e-01 -7.4575223028659821e-02</leafValues></_>
    <_>
      <internalNodes>
        0 -1 43539 -5.7436898350715637e-04</internalNodes>
      <leafValues>
        -2.7421680092811584e-01 4.4588979333639145e-02</leafValues></_>
    <_>
      <internalNodes>
        0 -1 43539 -1.3893026334699243e-04</internalNodes>
      <leafValues>
        1.5148220956325531e-01 -9.3032106757164001e-02</leafValues></_>
    <_>
      <internalNodes>
        0 -1 38139 5.0664423033595085e-03</internalNodes>
      <leafValues>
        -3.2700926065444946e-02 3.1523585319519043e-01</leafValues></_>
    <_>
      <internalNodes>
        0 -1 48259 6.9496146170422435e-04</internalNodes>
      <leafValues>
        -9.5237493515014648e-02 1.1667358130216599e-01</leafValues></_>
    <_>
      <internalNodes>
        0 -1 42592 -8.9961718767881393e-03</internalNodes>
      <leafValues>
        -4.5639508962631226e-01 2.4783052504062653e-02</leafValues></_>
    <_>
      <internalNodes>
        0 -1 47644 -2.3045644629746675e-03</internalNodes>
      <leafValues>
        1.9691441953182220e-01 -6.0923721641302109e-02</leafValues></_>
    <_>
      <internalNodes>
        0 -1 48337 2.6253596879541874e-03</internalNodes>
      <leafValues>
        5.2757482975721359e-02 -2.7668705582618713e-01</leafValues></_>
    <_>
      <internalNodes>
        0 -1 52481 6.0937069356441498e-02</internalNodes>
      <leafValues>
        -3.4165214747190475e-02 3.5523214936256409e-01</leafValues></_>
    <_>
      <internalNodes>
        0 -1 48672 1.8647229298949242e-02</internalNodes>
      <leafValues>
        5.5030051618814468e-02 -2.0855095982551575e-01</leafValues></_>
    <_>
      <internalNodes>
        0 -1 56917 7.0102354511618614e-03</internalNodes>
      <leafValues>
        2.0645115524530411e-02 -5.2204161882400513e-01</leafValues></_>
    <_>
      <internalNodes>
        0 -1 58348 -1.8129178788512945e-03</internalNodes>
      <leafValues>
        2.5254616141319275e-01 -4.2805310338735580e-02</leafValues></_>
    <_>
      <internalNodes>
        0 -1 52936 -3.3571403473615646e-03</internalNodes>
      <leafValues>
        -2.2714057564735413e-01 4.5442368835210800e-02</leafValues></_></weakClassifiers></stage21>
</opencv_storage>
